tree
version=v3
num_class=1
num_tree_per_iteration=1
label_index=0
max_feature_idx=24
objective=poisson
feature_names=item_id dept_id store_id cat_id state_id wday month year event_name_1 event_type_1 event_name_2 event_type_2 snap_CA snap_TX snap_WI sell_price lag_7 lag_28 rmean_7_7 rmean_28_7 rmean_7_28 rmean_28_28 week quarter mday
feature_infos=1341:2879:2884:1499:1251:1240:81:1339:2689:689:2340:3007:228:418:1804:911:922:1207:2337:2425:621:2538:3023:16:406:1468:1739:2541:2757:2898:530:766:1501:1572:1755:1759:255:282:431:477:720:814:824:1215:1542:1549:1890:1920:2431:2804:272:577:1236:1482:2505:2537:2593:21:170:214:405:600:972:1320:1399:1647:2462:2509:2788:3015:75:86:183:269:292:448:666:685:756:1024:1075:1112:1435:1490:1536:1642:1788:2115:2357:2436:2476:2495:2597:2624:2648:2656:2659:2674:14:513:533:591:757:908:1063:1094:1132:1463:1551:1598:1888:2283:2307:2327:2834:2838:2875:2967:3025:3026:59:66:112:356:604:669:903:938:1126:1190:1464:1511:1751:2239:2280:2770:2783:2960:402:494:503:722:874:1131:1272:1304:1321:1334:1445:1450:1455:1640:1656:1780:1782:1814:1826:1992:2356:2513:2525:2697:2795:2839:2872:96:362:397:413:421:596:649:650:806:881:944:989:1023:1030:1090:1147:1148:1226:1284:1286:1302:1343:1388:1434:1520:1547:1574:1588:1616:1630:1635:1650:1723:1736:2055:2125:2143:2207:2286:2458:2554:2558:2580:2978:15:19:188:306:354:361:422:495:545:572:579:674:692:833:1135:1197:1318:1345:1428:1524:1562:1618:1692:1711:1745:1746:1752:1840:1990:2165:2485:2616:2705:2778:2816:98:159:305:355:398:417:443:575:752:883:1032:1117:1151:1163:1165:1225:1244:1293:1386:1469:1480:1488:1624:1675:1698:1707:2042:2073:2117:2141:2323:2341:2385:2487:2489:2514:2556:2621:2622:2670:2718:2900:2921:2977:3033:28:85:107:249:312:347:371:400:466:580:597:672:698:771:828:879:882:953:992:1144:1229:1250:1289:1378:1379:1397:1413:1436:1444:1540:1648:1661:1674:1716:1721:1945:2230:2347:2365:2379:2507:2517:2528:2710:2730:2965:3003:3014:125:139:189:308:351:407:451:481:602:618:670:707:758:788:802:855:979:1027:1049:1053:1097:1125:1172:1175:1201:1280:1300:1327:1352:1546:1557:1622:1651:1660:1667:1713:1717:1775:2071:2315:2451:2466:2511:2628:2658:2709:2891:9:11:93:104:225:229:265:359:408:419:461:491:520:607:679:764:789:790:795:917:931:991:1058:1110:1129:1152:1223:1247:1254:1255:1313:1351:1368:1442:1505:1527:1564:1566:1568:1604:1623:1633:1644:1793:1822:1830:1967:2057:2177:2255:2292:2313:2348:2408:2481:2524:2693:2708:2780:2832:2909:2919:3002:37:42:69:89:94:127:179:248:281:373:435:475:531:608:635:794:810:827:902:930:994:1068:1071:1115:1164:1166:1178:1198:1200:1261:1317:1331:1409:1470:1486:1506:1534:1545:1561:1583:1593:1606:1621:1709:1781:1800:1802:1815:1852:1979:2186:2215:2291:2426:2467:2759:2859:2894:2988:2993:4:103:158:220:246:274:300:363:565:568:706:709:736:853:871:921:983:1043:1080:1150:1195:1224:1237:1333:1375:1377:1402:1406:1419:1424:1433:1503:1565:1645:1700:1732:1761:1776:1864:1997:2020:2066:2232:2236:2267:2350:2386:2570:2579:2602:2750:2761:2810:2852:2916:2925:2934:2973:2974:27:43:46:72:152:160:206:278:286:346:372:404:428:468:490:518:610:630:678:744:751:831:905:1048:1134:1139:1227:1271:1332:1452:1456:1496:1521:1523:1544:1669:1686:1704:1725:1733:1825:1853:1879:1883:1927:1965:2068:2152:2194:2214:2218:2278:2316:2415:2423:2448:2504:2581:2618:2631:2671:2688:2701:2858:3030:3038:70:91:106:146:173:213:381:395:399:423:454:465:484:546:601:637:661:675:718:730:966:968:1025:1076:1083:1124:1171:1192:1248:1311:1312:1372:1579:1586:1666:1689:1737:1817:1849:1861:1870:1906:1912:2111:2123:2129:2248:2264:2287:2293:2303:2305:2420:2437:2449:2455:2503:2518:2529:2550:2684:2692:2737:2806:2811:2851:2878:2887:2939:2984:3004:77:79:95:234:250:303:328:444:470:686:741:746:782:784:884:950:965:1037:1111:1138:1143:1177:1243:1274:1390:1392:1415:1429:1451:1500:1529:1558:1585:1590:1601:1607:1665:1702:1778:1791:1832:1836:1876:1913:2225:2250:2339:2342:2387:2439:2443:2563:2565:2600:2634:2673:2685:2691:2721:2735:2854:2881:2896:2952:2958:2970:31:164:167:219:319:320:447:476:515:532:544:558:566:615:645:734:901:1015:1099:1137:1180:1214:1233:1246:1282:1307:1309:1401:1414:1492:1602:1678:1681:1683:1695:1715:1770:1784:1806:1812:1959:1999:2050:2185:2240:2314:2360:2368:2392:2465:2491:2611:2672:2716:2802:2815:2835:2892:2950:2976:3013:3046:24:35:57:105:202:209:236:287:327:342:369:374:396:415:424:472:489:548:576:739:815:860:885:977:1007:1036:1074:1194:1205:1235:1315:1374:1394:1418:1477:1575:1580:1603:1610:1652:1706:1805:1865:1909:2168:2183:2208:2245:2304:2372:2409:2435:2584:2676:2722:2746:2786:2798:2808:2829:2856:2870:2940:2951:136:142:190:273:293:321:336:570:682:837:852:889:899:919:925:1040:1060:1096:1104:1106:1118:1130:1209:1234:1260:1370:1393:1405:1410:1426:1449:1478:1519:1550:1570:1634:1794:1821:1889:1903:2023:2062:2119:2156:2320:2326:2333:2351:2401:2452:2497:2498:2534:2543:2625:2630:2644:2686:2714:2740:2794:2853:2869:2895:2923:2935:2947:2948:62:63:138:195:203:210:289:334:437:449:508:550:561:598:617:767:783:904:914:924:963:971:1016:1077:1114:1133:1141:1158:1176:1196:1206:1256:1288:1338:1356:1362:1427:1437:1447:1483:1491:1571:1578:1615:1632:1670:1714:1799:1908:2000:2059:2107:2114:2253:2377:2411:2527:2542:2560:2566:2662:2665:2727:2752:2766:2779:2793:2820:2868:2890:2904:2962:2987:3028:83:129:208:253:288:291:304:315:464:474:504:511:543:551:569:592:656:687:705:770:796:847:870:877:910:952:1033:1047:1109:1155:1173:1183:1191:1204:1295:1301:1324:1430:1457:1479:1605:1659:1750:1773:1790:1811:1930:2063:2100:2158:2170:2238:2251:2319:2417:2480:2510:2548:2555:2572:2573:2575:2604:2635:2639:2657:2758:2782:2801:2844:2849:2986:3009:3045:92:187:200:280:358:389:390:483:500:528:537:585:625:629:631:648:701:737:856:867:934:1009:1029:1088:1102:1159:1275:1283:1329:1395:1404:1412:1473:1516:1531:1563:1680:1749:1785:1792:1809:1863:1869:1919:1969:2038:2069:2121:2131:2135:2169:2206:2254:2268:2281:2289:2369:2456:2483:2532:2569:2599:2610:2626:2632:2636:2687:2702:2764:2905:2927:101:231:241:296:317:368:498:557:634:652:680:763:829:845:993:1336:1359:1439:1465:1487:1548:1573:1589:1620:1638:1705:1729:1823:1976:1989:2022:2028:2088:2089:2148:2166:2182:2202:2242:2260:2275:2317:2355:2378:2380:2399:2406:2427:2441:2474:2515:2531:2535:2571:2592:2629:2646:2700:2703:2729:2775:2937:2954:5:8:20:33:132:144:171:194:223:232:339:387:426:463:549:735:868:927:1019:1098:1170:1186:1213:1279:1422:1494:1679:1684:1726:1728:1838:1887:1899:1961:2024:2051:2090:2102:2108:2109:2120:2128:2142:2159:2173:2210:2226:2288:2325:2384:2473:2544:2612:2675:2717:2728:2809:2814:2918:2931:2941:2963:3005:3022:3044:3:49:76:109:243:256:332:352:377:411:535:578:614:658:694:710:738:742:748:772:834:863:894:909:932:936:1000:1002:1045:1121:1162:1222:1270:1296:1364:1369:1421:1431:1446:1448:1476:1485:1512:1631:1637:1655:1697:1827:1856:1857:1874:1880:1996:2197:2204:2217:2244:2331:2373:2418:2419:2587:2609:2619:2704:2767:2789:2791:2969:2971:3035:3040:61:251:391:394:457:493:517:684:749:759:1042:1160:1179:1203:1210:1212:1245:1267:1340:1385:1417:1462:1619:1668:1738:1786:1819:1824:1891:2002:2009:2033:2043:2124:2130:2290:2375:2402:2440:2591:2598:2637:2699:2715:2725:2765:2822:2867:2956:2983:2990:3018:3021:1:7:10:30:40:54:140:148:268:301:341:348:507:527:581:668:677:700:846:1034:1107:1108:1167:1187:1232:1266:1285:1330:1366:1396:1438:1510:1626:1646:1663:1699:1742:1763:1885:1893:1980:1987:2032:2222:2246:2279:2310:2363:2424:2446:2493:2522:2552:2712:2876:2911:2966:113:123:141:145:205:207:218:409:434:534:563:818:887:898:918:987:1038:1149:1169:1221:1241:1278:1287:1355:1552:1600:1765:1795:1845:1894:1939:1960:2007:2044:2056:2179:2270:2362:2366:2374:2463:2551:2601:2655:2678:2680:2719:2744:2831:2836:2855:2880:2903:2946:2979:2992:3006:3041:17:71:73:178:186:259:276:294:298:414:445:522:582:653:660:717:726:760:891:933:954:956:959:961:982:995:1062:1070:1257:1348:1357:1358:1407:1432:1454:1466:1611:1641:1690:1762:1837:1839:1983:2008:2021:2101:2137:2139:2144:2155:2162:2201:2300:2302:2352:2354:2370:2607:2679:2682:2720:2805:2817:2995:3020:3043:22:36:242:258:290:318:478:623:624:627:632:696:702:727:807:811:929:1001:1020:1056:1087:1092:1122:1146:1184:1252:1264:1350:1403:1515:1532:1596:1628:1673:1859:1882:1904:1915:1950:1970:2015:2016:2030:2037:2081:2164:2178:2192:2200:2252:2407:2421:2490:2519:2763:2893:2899:2902:2928:3029:137:155:181:230:279:310:379:393:539:626:640:647:704:895:946:998:1013:1093:1189:1193:1290:1294:1335:1497:1612:1617:1639:1653:1657:1662:1712:1747:1803:1846:1847:1935:1937:1972:1978:2045:2070:2086:2212:2397:2398:2454:2533:2638:2642:2733:2771:2818:2846:2942:2985:90:100:128:168:182:237:311:322:471:542:664:711:715:755:775:843:1086:1423:1587:1636:1677:1718:1892:1907:1933:1954:2049:2077:2093:2134:2140:2184:2211:2256:2322:2447:2450:2468:2472:2613:2732:2768:2796:2841:2938:216:302:307:313:420:589:636:714:848:892:923:958:969:1014:1384:1441:1671:1866:1975:1993:2001:2018:2190:2220:2321:2344:2393:2459:2540:2567:2677:2748:2936:3010:3032:47:51:65:122:154:192:217:226:252:260:324:462:571:603:778:850:861:948:1120:1265:1354:1701:1774:1841:1895:1944:1949:1955:2031:2061:2237:2274:2306:2364:2412:2470:2615:2620:2666:2669:2694:2888:2996:41:147:284:316:375:613:662:765:793:839:840:980:985:1085:1103:1239:1292:1303:1522:1687:1727:1843:1966:2034:2046:2174:2223:2224:2389:2403:2908:2910:2999:3000:29:34:38:74:110:135:222:227:240:263:267:340:403:416:452:594:976:1066:1100:1387:1440:1735:1744:1764:1777:1848:1871:1886:1902:1952:2047:2106:2147:2149:2151:2161:2193:2196:2430:2772:2901:2944:6:270:277:314:560:695:725:754:779:780:792:800:822:836:862:915:973:1017:1041:1061:1168:1174:1253:1322:1453:1471:1556:1807:1896:1925:1926:1929:1974:1986:1995:2010:2094:2163:2187:2299:2336:2345:2469:2482:2526:2681:2803:0:58:80:84:131:169:257:323:392:488:559:609:655:657:671:688:740:916:1006:1059:1231:1269:1281:1308:1400:1535:1543:1722:1881:1948:1953:2067:2160:2324:2400:2438:2500:2546:2559:2760:2762:2833:68:102:126:133:149:172:174:247:285:326:410:467:552:619:651:721:859:964:1005:1054:1069:1219:1291:1323:1719:1741:1753:1816:1851:1910:2029:2048:2175:2199:2235:2273:2434:2512:2549:2623:2797:2840:2883:3012:3031:111:264:338:370:433:556:646:690:733:1026:1199:1208:1730:1767:1820:2025:2060:2145:2266:2457:2521:2545:2586:2647:2862:2873:2912:3037:12:56:161:299:333:357:469:486:555:564:643:681:743:906:970:974:1028:1105:1238:1344:1380:1474:1676:1757:1878:1914:2014:2087:2092:2110:2153:2265:2318:2382:2405:2589:2975:3042:67:124:295:429:516:525:728:774:926:1346:1495:1509:1691:1768:1771:1982:2105:2126:2132:2432:2477:2576:2652:3008:26:39:176:360:432:593:641:693:821:835:838:876:1218:1460:1789:1801:1818:2058:2157:2488:2645:2668:2723:2754:2755:2774:2784:13:18:48:50:52:198:235:262:297:412:496:538:628:644:1072:1211:1382:1748:1754:1897:1957:1964:2262:2271:2338:2460:2475:2603:2790:2866:2913:2933:2949:53:143:162:366:382:633:823:849:937:949:967:1095:1161:1259:1314:1361:1703:1779:1783:1833:1868:1947:2176:2311:2328:2492:2568:2627:2698:2889:2991:3027:23:97:191:388:502:540:703:896:897:962:1008:1052:1119:1145:1185:1217:1299:1337:1365:1484:1541:1569:1649:1931:1932:1962:2003:2054:2082:2091:2095:2539:2605:2683:2953:3019:115:119:425:460:519:583:731:981:1128:1202:1242:1489:1595:1625:1828:1938:1942:1946:1963:2099:2133:2332:2547:2608:2792:2830:2848:2877:3039:193:329:1127:1181:1305:1398:1582:1629:1682:1810:1813:2285:2413:2428:2536:2861:2906:3036:157:211:350:364:501:521:683:798:873:890:920:1258:1276:1518:1710:1766:2026:2261:2276:2297:2410:2650:2843:2847:266:344:654:713:777:785:943:955:1084:1182:1467:1504:1514:1581:1797:1829:1875:1901:1911:1991:2053:2096:2257:2295:2404:2414:2523:2578:2777:2828:60:196:215:442:512:554:729:842:893:912:942:990:997:1057:1493:1743:1756:1854:1872:2012:2039:2084:2150:2233:2282:2383:2496:2506:2667:150:595:642:699:808:820:1050:1298:1472:1528:1559:2052:2127:2284:2516:2553:2707:2813:2824:2842:2864:2882:2961:3047:64:78:177:337:665:732:830:1391:1831:1988:2080:2083:2294:2444:2461:2508:2726:2738:2860:55:118:325:385:487:541:762:813:907:1003:1012:1065:1383:1461:1526:1672:1696:1758:1798:1922:1958:1968:2442:2471:2530:2739:2742:2747:2874:2955:2972:3016:116:331:523:553:588:612:773:817:857:886:913:940:996:1123:2005:2006:2138:2171:2219:2221:2301:2329:2394:2649:2749:2756:2968:117:130:343:365:473:479:480:506:567:803:816:1328:1594:1708:1862:1934:2064:2085:2277:2298:2359:2557:2654:2663:2664:2695:2711:2821:2980:2982:108:221:430:622:753:781:819:858:880:986:1055:1188:1371:1373:1498:1855:1858:1905:2112:2269:2296:2330:2391:2:25:88:353:378:799:841:844:1004:1035:1079:1082:1157:1425:1458:1502:1513:1592:1609:1916:1943:2209:2640:2785:2850:2857:2917:2930:82:151:165:349:384:446:459:536:745:1021:1101:1136:1142:1342:1360:1537:1941:1977:2229:2429:2499:2651:2743:2886:32:99:184:245:436:611:638:639:712:809:851:864:865:878:888:1022:1249:1408:1459:1553:1985:2422:2486:2812:2959:87:283:367:376:401:492:505:514:606:708:999:1091:1517:1555:1772:1936:2072:2136:2585:2661:2773:2781:2926:3024:201:456:509:573:667:1011:1156:1877:2249:2334:2353:2464:2564:2582:2583:2617:2706:2825:185:386:587:673:724:1420:1538:1688:1720:1921:1998:2004:2167:2335:2713:2819:2823:2845:2907:2932:163:166:271:380:599:616:826:935:975:1046:1216:1310:1353:1539:1734:1760:1923:1956:2065:2098:2154:2180:2227:2231:2243:2258:2361:2736:2745:2769:2924:114:233:427:499:529:562:663:723:825:1073:1306:1367:1475:1533:1554:1567:1591:1627:1654:1867:1994:2040:2181:2241:2308:2346:2416:2453:2574:2606:2827:2863:2922:121:134:238:620:747:797:875:1154:1220:1228:1316:1325:1416:1530:1576:1850:1951:2122:2146:2388:2445:2561:2588:2595:2897:383:590:854:988:1018:1277:1599:1643:1796:1873:2036:2188:2189:2247:2367:2799:3011:3034:175:199:345:440:510:584:791:812:1010:1064:1230:1584:1724:1917:2103:2259:2263:2381:2594:2731:2865:2957:2989:2998:450:455:804:832:869:951:1577:1658:1664:1834:2011:2017:2041:2075:2312:2343:2396:2433:2734:2751:2776:2807:156:275:309:526:574:900:960:1067:1389:1481:1731:1835:1900:1928:2074:2309:2494:2614:2653:153:204:239:254:453:458:676:697:716:941:1113:1116:1268:1376:1508:1614:1693:1787:1924:1984:2113:2198:2203:2358:2660:2915:2943:3001:44:212:605:691:928:984:1039:1262:1319:1525:1740:1860:1898:1918:2027:2172:2395:2501:2562:2633:2885:2997:3048:224:439:485:659:750:1608:1685:1940:1981:2078:2097:2104:2191:2349:2376:2914:244:586:872:947:1078 6:3:2:0:5:4:1 5:4:9:0:2:6:8:3:7:1 2:1:0 1:0:2 [1:7] [1:12] [2011:2016] 23:0:26:12:13:16:27:22:24:29:5:19:9:14:20:7:2:28:3:17:25:4:11:30:6:10:1:18:21:15:8 3:0:2:1:4 4:0:3:1:2 1:0:2 [0:1] [0:1] [0:1] [0.05000000074505806:30.979999542236328] [0:561] [0:303] [0:336.71429443359375] [0:229.28572082519531] [0:264.82144165039062] [0:245.96427917480469] [1:53] [1:4] [1:31]
tree_sizes=3711 4189 4822 4842 5729 4708 5442 4560 5122 5217

Tree=0
num_leaves=31
num_cat=1
split_feature=20 20 20 18 20 20 20 18 20 18 20 20 20 5 20 17 20 20 0 5 5 17 5 18 5 5 18 20 5 18
split_gain=7.0438e+07 2.40495e+07 1.89816e+07 5.91628e+06 4.75827e+06 3.4732e+06 2.95571e+06 1.63095e+06 1.29573e+06 812933 698069 621457 545872 500667 426344 415949 383185 378496 345090 294834 284840 278510 261816 240424 222369 217017 191403 175170 166155 160200
threshold=10.803571224212648 38.464284896850593 2.9107142686843877 86.428573608398452 20.946428298950199 0.98214286565780651 5.9107141494750985 149.35713958740237 52.160713195800788 7.6428573131561288 15.446428775787355 28.482142448425297 1.7678571343421938 2.5000000000000004 0.41071428358554846 86.500000000000014 8.0178570747375506 4.1964285373687753 0 2.5000000000000004 2.5000000000000004 174.00000000000003 2.5000000000000004 22.642856597900394 2.5000000000000004 2.5000000000000004 3.5000000000000004 65.839282989501967 2.5000000000000004 60.642858505249031
decision_type=10 10 10 10 10 8 10 10 10 10 10 10 10 2 10 10 10 10 9 2 2 10 2 10 2 2 10 10 2 10
left_child=2 4 5 8 10 14 17 15 20 12 25 22 18 29 -1 -5 -8 -4 -7 -13 -3 -9 -6 -11 -12 -2 -20 -15 -17 -10
right_child=1 3 6 7 11 9 16 21 13 23 24 19 -14 27 -16 28 -18 -19 26 -21 -22 -23 -24 -25 -26 -27 -28 -29 -30 -31
leaf_value=0.29523639249185835 0.68033671941746399 1.649600857454238 0.38166909393734866 2.4095997486927923 1.0269685446399019 1.0192917272080972 0.46881706832546122 4.2563982970121899 2.0218140797868802 0.56502307210520364 0.83142059941550162 1.2875010300258589 0.34910020136624043 1.6229605229883446 0.30814342774884862 3.7039968670716883 0.52855405309660197 0.41948457480161572 0.32346438257496241 1.0347383267855024 1.3071542918947219 5.9103120122272284 0.84878039482567857 1.0483230319792223 0.7048140931141269 0.59039796774841746 0.40345406532824907 1.9740639929694233 2.9556334726600255 2.5483649105163453
leaf_weight=43424454.004329443 211453.48290801048 19136.466193199158 3813250.8930444717 6152.60289311409 65089.679086208344 4010.5028390884399 1513593.3754622936 1240.0161981582642 5884.4912827014923 47480.890506505966 109263.85973095894 36429.665064811707 7680104.5583665371 19650.346779823303 21534464.815217257 2792.8292751312256 1005108.5349977016 2442443.7071025372 14954975.174570084 90317.305928468704 47776.930409669876 1066.8607831001282 161403.18946838379 6593.8699185848236 273032.57559537888 527101.84041261673 170183.84470939636 13478.194081783295 4155.7299613952637 7266.941773891449
leaf_count=15548553 75713 6852 1365372 2203 23306 1436 541957 444 2107 17001 39123 13044 2749937 7036 7710627 1000 359889 874541 5354776 32339 17107 382 57792 2361 97762 188734 60936 4826 1488 2602
internal_value=0 6.57513 -0.109101 19.6901 5.43097 -0.249218 1.29332 38.074 17.1876 0.085988 4.42236 8.63135 0.0768068 21.2559 -0.3672 33.7563 2.20801 0.925046 -0.0334146 10.4044 14.3738 62.5925 7.63911 3.9587 5.51926 3.85457 -0.0358769 19.1834 39.0588 26.4763
internal_weight=0 1.60269e+06 9.65967e+07 128601 1.47409e+06 8.78223e+07 8.7744e+06 15408 113193 2.28633e+07 1.12085e+06 353240 2.28093e+07 46280 6.49589e+07 13101.2 2.5187e+06 6.25569e+06 1.51292e+07 126747 66913.4 2306.88 226493 54074.8 382296 738555 1.51252e+07 33128.5 6948.56 13151.4
internal_count=35161246 573860 34587386 46047 527813 31445627 3141759 5517 40530 8186447 401332 126481 8167085 16571 23259180 4691 901846 2239913 5417148 45383 23959 826 81098 19362 136885 264447 5415712 11862 2488 4709
cat_boundaries=0 92
cat_threshold=0 0 0 0 0 0 0 0 0 0 0 0 0 0 0 0 0 0 0 0 0 0 0 0 0 0 0 0 0 0 0 0 0 0 0 0 0 0 0 0 0 0 0 0 0 0 0 0 0 0 0 0 0 0 0 0 0 0 0 0 0 0 0 0 0 0 0 0 0 0 0 0 1025 0 0 0 0 4096 0 16384 0 0 0 0 0 0 134217728 201326592 0 0 0 33554496
shrinkage=1


Tree=1
num_leaves=31
num_cat=2
split_feature=20 20 18 18 18 16 18 20 20 18 20 18 20 16 20 5 5 0 19 17 18 20 20 20 16 21 16 0 5 18
split_gain=4.02994e+07 6.19443e+06 4.39239e+06 3.55022e+06 1.25449e+06 983008 786204 780388 523827 421050 356704 261366 221227 212965 177267 133423 129910 120011 112740 103135 102967 96366.6 93845.2 88027.4 123224 84074.4 82661.2 80606.9 80300.9 78052.6
threshold=4.6250000000000009 1.303571403026581 10.357142925262453 149.35713958740237 2.7857142686843877 17.500000000000004 86.428573608398452 0.51785713434219371 6.9821429252624521 9.9285712242126483 2.0892857313156132 19.071428298950199 12.767857074737551 20.500000000000004 3.3750000000000004 2.5000000000000004 2.5000000000000004 0 0.6428571641445161 86.500000000000014 0.5000000149011613 0.23214285820722583 0.87500000000000011 52.160713195800788 33.500000000000007 35.053571701049812 123.50000000000001 1 2.5000000000000004 2.7857142686843877
decision_type=10 8 10 10 10 10 10 10 10 10 10 10 10 10 8 2 2 9 10 10 8 10 10 10 10 10 10 9 2 8
left_child=1 7 8 5 10 12 11 21 16 14 13 -7 -4 17 -6 -10 -2 29 -13 -8 -19 25 -9 24 -20 -1 -15 -11 -16 -3
right_child=2 4 3 -5 9 6 19 22 15 27 -12 18 -14 26 28 -17 -18 20 23 -21 -22 -23 -24 -25 -26 -27 -28 -29 -30 -31
leaf_value=-0.033223646719308879 0.11842516234151411 0.050790239861951844 0.17353596590709022 -0.0054471483711295695 0.036240876107872341 0.256974868289292 0.23744260543604087 -0.017926181688452818 0.17611687783240385 0.3987520415509847 0.027279183101242149 0.4893031996020058 0.23341932398602944 0.53822539635412114 0.082899202462825297 0.13154090252256903 0.082554634973003346 -0.020567026531922467 0.30951834141588369 0.11099474388660686 0.0040628712183996829 -0.02611398427664435 -0.0081094726472789851 0.28297451985430855 0.36794985038507483 0.97774693619395736 2.5221438181057918 0.19668835992974601 0.054155368263480066 0.35003255227959207
leaf_weight=30952621.268556118 795786.67233800888 10805.125689506531 666738.53139162064 336435.35549926758 3212363.3720440865 404008.72559952736 49455.382175922394 12919940.110397339 531721.83013892174 14442.158798456192 4513201.2417988777 23756.613903522491 723657.61131811142 3069.9225606918335 765390.94276714325 1303970.1216957569 1983401.7306690216 1059578.2864179611 455814.247194767 136229.08108520508 9651736.9634361267 16516085.844610214 9509621.1188106537 229137.49796962738 366053.86870551109 462.61720132827759 122.77263927459717 48484.392497777939 1913456.4774334431 8976.0557141304016
leaf_count=11441205 255337 3569 190980 808 1111459 103442 2264 4714432 153644 3476 1566019 5662 171087 884 256525 383848 636384 379917 90483 2414 3444796 6079345 3431908 15677 57789 171 22 13866 641268 2565
internal_value=0 -0.193625 2.14644 3.01049 0.279843 3.35003 3.8685 -0.337237 1.51149 0.669102 0.127838 4.11203 2.72938 0.0286613 0.641618 1.92604 1.23768 0.0262317 4.36979 1.92897 0.0216859 -0.409868 -0.183522 4.3211 4.47391 -0.44278 8.19456 3.24212 0.831573 2.48645
internal_weight=0 9.11004e+07 8.00617e+06 3.39129e+06 2.12016e+07 3.05485e+06 1.66446e+06 6.98987e+07 4.61488e+06 5.95414e+06 1.52475e+07 1.47877e+06 1.3904e+06 1.07343e+07 5.89121e+06 1.83569e+06 2.77919e+06 1.07311e+07 1.07476e+06 185684 1.07113e+07 4.74692e+07 2.24296e+07 1.05101e+06 821868 3.09531e+07 3192.7 62926.6 2.67885e+06 19781.2
internal_count=35161246 33091427 2069819 640606 7424366 639798 277731 25667061 1429213 2026594 5397772 273053 362067 3831753 2009252 537492 891721 3830847 169611 4678 3824713 17520721 8146340 163949 148272 11441376 906 17342 897793 6134
cat_boundaries=0 93 186
cat_threshold=0 0 0 0 0 0 0 0 0 0 0 0 0 0 0 0 0 0 0 0 2147483648 0 0 0 0 0 0 0 0 0 0 0 0 0 0 0 0 0 0 0 0 0 0 0 0 0 0 0 0 0 0 0 0 0 0 0 0 0 0 0 0 0 0 0 0 0 0 0 1024 0 32768 0 525313 256 64 67108864 67371008 4096 8455168 33570816 67108864 512 0 4096 134217728 32 134217728 201326592 32768 0 0 37748800 131076 0 0 0 0 0 0 0 0 0 0 0 0 0 0 0 0 0 0 0 0 0 0 0 0 0 0 0 268435456 0 0 0 4194304 0 0 0 0 0 0 0 0 0 0 0 0 0 0 0 0 0 0 0 0 0 0 0 4096 0 0 0 0 134217728 0 0 0 0 2 0 0 1024 0 0 0 0 256 64 67108864 262144 4096 1536 33554944 67108864 768 64 8392704 0 32 134225920 201326592 32768 0 33554432 33554496 262144
shrinkage=0.075


Tree=2
num_leaves=31
num_cat=4
split_feature=20 20 20 18 18 18 20 20 18 18 20 0 5 20 20 5 5 20 24 20 18 5 0 0 21 24 18 20 5 0
split_gain=3.2432e+07 4.49829e+06 3.71838e+06 1.872e+06 771541 600586 573152 412842 332607 309386 239018 157763 118672 108396 106759 85282.9 78363.8 70847.4 69842.5 68972.5 63187.6 60442.2 57662 57625.2 68615.2 57142 56399.9 50628.8 50266.4 45356.5
threshold=3.7321428060531621 1.1250000000000002 8.9821429252624529 149.35713958740237 2.3571429252624516 14.928571224212648 0.44642856717109686 5.5892858505249032 6.6428573131561288 86.428573608398452 1.6964285969734194 0 2.5000000000000004 18.428570747375492 2.6607142686843877 2.5000000000000004 2.5000000000000004 0.73214286565780651 15.500000000000002 0.19642857462167743 0.35714286565780645 2.5000000000000004 1 2 13.267857074737551 15.500000000000002 2.3571429252624516 2.3750000000000004 2.5000000000000004 3
decision_type=10 8 10 10 10 10 10 10 10 10 10 9 2 10 8 2 2 10 2 10 8 2 9 9 10 2 8 10 2 9
left_child=1 6 7 5 10 16 19 15 14 13 11 26 -9 -7 -6 -2 -4 -8 -15 23 -13 -16 -10 24 -1 29 -3 -12 -11 -18
right_child=2 4 3 -5 8 9 17 12 22 28 27 20 -14 18 21 -17 25 -19 -20 -21 -22 -23 -24 -25 -26 -27 -28 -29 -30 -31
leaf_value=0.046706657013711107 0.082430651985952258 0.038343540657740885 0.17135998099993788 -0.0053347354862259642 0.021434881796050811 0.18627374262437943 -0.020276269453036008 0.12528646216904185 0.25427264333982452 0.081294759323643453 0.011420212485786225 -0.022373523779811996 0.092536219755018134 0.23732169194723612 0.05629502177952924 0.057430028844545192 0.20454036118943408 -0.011764205200099817 0.20689076150124089 -0.027124292639530506 -0.0017543547654810684 0.034242244909449007 0.12356331819452396 -0.033512823797620314 0.58095158142398384 0.12280161005725557 0.27016765914945629 0.026842940892542601 0.1526367383675509 0.14637049211030231
leaf_weight=26863.077768087387 1084911.6781532764 9393.375182390213 587957.70474338531 328133.04963684082 3144959.3045046329 675678.12962388992 11638122.413391113 882099.59043169022 22134.616495609283 104234.28391456604 4204706.4881126881 917736.0037882328 2113610.4907801151 831322.04059457779 981985.29849982262 2623407.2996344566 86462.966155290604 10428846.266420126 866384.98935079575 15392615.190606594 9388041.2606348991 2426748.5998561382 134196.10472130775 27286831.098613501 1423.8488166332245 660599.06795930862 15887.408574581146 1673938.8104631901 118950.04350185394 597421.84333467484
leaf_count=10265 326282 3025 125857 796 1077338 133383 4333697 234930 4183 1382 1463856 335836 584569 97635 320265 812476 19264 3833739 102581 5837915 3374188 798087 36823 10426821 378 154578 3009 564533 3455 140100
internal_value=0 -0.212853 1.56902 2.2353 0.167893 2.4024 -0.347575 1.0863 0.453061 2.71655 0.049848 -0.0417517 1.3624 2.8224 0.418675 0.863257 1.98028 -0.216713 2.95723 -0.415191 -0.0478734 0.541269 1.89459 -0.445359 0.980991 1.84712 2.45278 0.210824 1.5909 2.04973
internal_weight=0 8.76944e+07 1.15612e+07 4.85714e+06 2.29197e+07 4.52901e+06 6.47747e+07 6.70403e+06 6.71002e+06 2.59657e+06 1.62097e+07 1.03311e+07 2.99571e+06 2.37339e+06 6.55369e+06 3.70832e+06 1.93244e+06 2.2067e+07 1.69771e+06 4.27077e+07 1.03058e+07 3.40873e+06 156331 2.73151e+07 28286.9 1.34448e+06 25280.8 5.87865e+06 223184 683885
internal_count=35161246 32423958 2737288 779031 7981143 778235 24442815 1958257 2236696 338436 5744447 3716058 819499 333599 2195690 1138758 439799 8167436 200216 16275379 3710024 1118352 41006 10437464 10643 313942 6034 2028389 4837 159364
cat_boundaries=0 94 189 284 379
cat_threshold=0 0 0 0 0 0 0 0 0 0 0 0 0 0 0 0 0 0 0 0 0 0 0 0 0 0 0 0 0 0 0 4194304 0 0 0 0 0 0 0 0 0 0 0 0 0 0 0 0 8 0 0 0 0 0 0 0 0 0 0 0 0 0 0 0 0 4194304 0 0 1024 16777216 32768 0 525312 0 64 67108864 67371008 4096 8455680 33570816 67108864 512 0 4096 0 32 134217728 201326592 0 0 0 4194368 536870916 1073741824 0 0 0 0 0 0 0 0 0 0 0 0 0 0 0 0 0 0 128 0 2147483648 0 0 0 0 0 0 268435456 8192 16640 8192 4194304 0 0 0 0 0 0 0 0 0 0 0 0 0 0 0 0 0 0 0 0 0 0 1024 0 0 0 0 0 0 0 0 0 0 0 0 0 0 524288 0 2097152 1088 256 0 67108864 262144 4096 8389632 512 67108864 512 0 4096 0 32 134217728 201326592 32768 0 0 33554496 262144 0 8192 0 0 0 4 0 0 0 0 0 0 0 0 0 0 0 0 0 0 0 0 0 0 0 0 67108864 0 0 0 0 0 0 1024 0 0 0 0 0 0 0 0 0 0 0 0 0 0 0 0 65536 4096 0 0 0 0 4194304 0 0 0 0 0 0 0 0 0 1 0 0 0 0 16777216 0 4194304 2622464 16777216 0 67108864 67108864 0 65536 0 0 512 8192 1073872896 0 1073741824 524288 1048576 32768 0 33554432 37781504 131076 1073741824 4 0 0 0 0 0 0 0 4 0 0 0 0 0 0 0 0 0 0 0 0 0 0 0 0 0 0 0 0 0 0 0 0 0 0 0 0 0 0 0 0 0 0 0 0 0 0 0 0 0 0 1073741824 0 0 0 0 5120 8192 128 4194304 0 134219776 0 0 0 4196352 2147483648 0 0 17536 16842752 0 4194304 1024 4194304 0 0 67108864 0 0 0 0 256 4096 0 0 12 524288 68157440 0 0 0 4194304 0 0 553656320
shrinkage=0.075


Tree=3
num_leaves=31
num_cat=4
split_feature=18 18 18 18 18 16 18 18 0 18 0 16 17 17 5 5 18 0 17 5 18 17 18 16 17 16 17 17 0 18
split_gain=2.71046e+07 3.80189e+06 2.67645e+06 1.19998e+06 576583 475319 438483 278894 201146 150975 140942 119611 96371.1 81676.8 68192.2 64804.4 63206.4 61197.1 60489 52633.4 50746.3 45121.6 44573.9 52841.1 40079.4 38737.5 32760.6 31420.3 31199.6 30265
threshold=3.6428570747375493 1.0714285969734194 8.3571429252624529 149.35713958740237 2.0714285373687749 13.500000000000002 0.35714286565780645 5.5000000000000009 0 86.428573608398452 1 24.500000000000004 4.5000000000000009 2.5000000000000004 2.5000000000000004 2.5000000000000004 0.6428571641445161 2 10.500000000000002 2.5000000000000004 1.0000000180025095e-35 86.500000000000014 1.5000000000000002 10.500000000000002 14.500000000000002 9.5000000000000018 5.5000000000000009 8.5000000000000018 3 2.6428570747375493
decision_type=10 8 8 8 10 8 8 10 9 8 9 10 10 10 2 2 10 9 10 2 10 10 10 10 8 8 10 10 9 10
left_child=1 6 7 5 10 18 8 15 -1 11 25 24 19 22 -9 -2 -8 -10 -4 -6 -19 -11 23 28 -7 -3 -17 -16 -12 -21
right_child=2 4 3 -5 12 9 16 14 17 21 13 -13 -14 -15 27 26 -18 20 -20 29 -22 -23 -24 -25 -26 -27 -28 -29 -30 -31
leaf_value=0.086768305850398839 0.068956951871337768 0.074830631642412437 0.10557823658594558 -0.0054354506376197154 0.033157922649228691 0.13688752519198127 -0.021111551447324985 0.10169177003456671 0.031082356034122197 0.15183342804454134 0.091378932333858576 0.17701257364051676 0.043004267520250654 0.012508618716559842 0.07209801824609377 0.043914916533340273 -0.013250592468735977 -0.032741115597403898 0.12968873624523464 0.01238754819776927 -0.02728378540810145 0.081588866851618494 0.0037379523641257757 0.21018002496508587 0.1605414342112387 0.21871929147132832 0.062214662224702143 0.093882526883752163 -0.0061830137585332044 0.024049214521511389
leaf_weight=82553.15474653244 1237754.1582758427 24357.385408639908 1368810.337221384 328603.77083587646 1806655.2987627983 815043.79747891426 11529700.943830252 907957.38154435158 90801.642167329788 73141.821197509766 18477.101350307465 1721035.678579092 1531658.3286194801 2727270.5681157112 1621549.8401453495 2199572.4956922531 11484397.468739033 23952290.972420931 1022572.1456465721 2500913.4185256958 15977967.479382753 173344.16895484924 4690044.4896235466 6370.358062505722 796926.81004858017 18531.973765611649 733880.20628547668 483463.68805623055 6922742.1087765694 2506370.4833953381
leaf_count=23729 348930 6860 299507 809 596856 153079 4402773 222439 30273 2334 6174 164336 472016 943728 435740 663240 4284743 9404695 184774 852133 6217263 2448 1667559 1889 114816 2750 204682 117395 2523048 810228
internal_value=0 -0.212875 1.31219 1.78798 0.137577 1.89037 -0.33921 0.894995 -0.40235 2.12098 0.0164229 2.17683 0.346736 0.0110179 1.12682 0.72754 -0.229184 -0.405567 1.54517 0.295789 -0.407432 1.36578 -0.0254852 -0.0763338 1.98109 1.82629 0.646574 1.02802 -0.0789758 0.242996
internal_weight=0 8.58711e+07 1.34837e+07 6.29948e+06 2.27534e+07 5.97087e+06 6.31177e+07 7.18418e+06 4.01036e+07 3.57949e+06 1.44078e+07 3.33301e+06 8.3456e+06 1.43649e+07 3.01297e+06 4.17121e+06 2.30141e+07 4.00211e+07 2.39138e+06 6.81394e+06 3.99303e+07 246486 1.16376e+07 6.94759e+06 1.61197e+06 42889.4 2.93345e+06 2.10501e+06 6.94122e+06 5.00728e+06
internal_count=35161246 32246717 2914529 922103 7883241 921294 24363476 1992426 15675960 437013 5152008 432231 2731233 5142398 775574 1216852 8687516 15652231 484281 2259217 15621958 4782 4198670 2531111 267895 9610 867922 553135 2529222 1662361
cat_boundaries=0 95 190 285 379
cat_threshold=0 0 0 0 0 0 0 0 0 0 0 0 0 0 0 0 0 0 128 0 2147483648 0 0 0 0 0 0 268435456 2 0 0 272630784 0 73728 0 0 0 0 0 0 0 0 0 0 0 0 0 0 0 0 0 0 0 0 4194304 0 0 0 0 0 0 0 0 0 0 0 0 0 0 16777216 0 4194304 536871936 0 0 67108864 67108864 4096 66560 0 0 256 0 1073741824 0 12 134742016 1048576 0 0 0 4202497 537001984 0 16777216 0 0 0 0 0 0 0 0 0 0 0 0 0 0 0 0 0 0 0 0 0 0 0 0 0 0 0 0 0 0 0 0 0 0 0 0 0 0 0 0 0 0 0 0 0 0 0 0 0 0 0 0 0 0 0 0 0 0 4194304 0 0 0 0 0 0 0 0 0 1024 0 32768 0 525313 256 64 67108864 67371008 4096 8389120 33570816 67108864 0 0 4608 134217728 32 134742016 201326592 0 2048 0 37748800 536870916 0 2097152 0 0 0 0 0 0 0 0 0 0 0 0 0 0 0 0 0 0 0 0 131072 0 0 0 0 0 1048584 0 8192 0 16785424 16 0 0 0 0 0 0 0 0 0 0 0 0 0 0 0 0 65544 4096 524288 0 0 0 0 0 0 0 0 0 0 0 0 0 1 4194304 0 0 0 0 0 0 524416 16777216 0 0 0 0 0 16384 0 33554432 12296 4325376 134217728 0 0 0 32768 0 100663328 0 4 1073741824 536870912 0 0 0 0 0 0 0 0 0 0 524288 1024 0 0 0 0 0 0 0 0 2147483648 0 0 0 0 0 0 268435456 8192 0 0 0 0 0 0 0 0 0 0 0 0 0 0 0 0 0 0 0 8 512 0 0 0 0 0 0 0 0 0 0 134219776 0 0 0 0 4194304 0 536870912 0 16777216 0 541065216 0 0 0 0 33554432 0 65536 0 0 2097664 64 71319560 0 1081356 8192 1048576 0 0 4096 0 131072 512
shrinkage=0.075


Tree=4
num_leaves=31
num_cat=7
split_feature=18 18 18 18 21 21 18 21 0 18 0 21 18 18 21 21 18 0 24 21 21 19 0 0 21 17 21 0 17 0
split_gain=2.32364e+07 3.05969e+06 2.35538e+06 783764 625859 500195 406549 292079 173921 119730 129122 103038 95596.2 94009.5 75981.2 68344.3 67014.2 63526.7 57085.3 53692.5 44766.9 39427.9 36519.2 35786.9 34842.3 40150.5 29220.4 28997.5 27814.7 27564.4
threshold=3.2142857313156132 0.92857143282890331 7.357142686843873 149.35713958740237 1.9821428656578066 0.55357143282890331 13.214285850524904 4.8392858505249032 0 1.6428571343421938 1 3.2678571939468388 0.21428572386503222 86.428573608398452 9.6964287757873553 1.1250000000000002 4.6428573131561288 2 15.500000000000002 1.0892856717109682 6.7678570747375497 2.2142857313156132 3 4 11.160714626312258 1.0000000180025095e-35 3.2321428060531621 5 86.500000000000014 6
decision_type=10 8 10 10 10 10 10 10 9 10 9 10 10 8 10 10 10 9 2 8 10 8 9 9 10 10 8 9 10 9
left_child=1 5 7 6 9 12 14 16 24 10 -3 -6 27 17 -4 -10 26 21 23 -12 -9 -8 -21 -19 -7 -26 -2 -1 -15 -17
right_child=2 4 3 -5 11 8 13 20 15 -11 19 -13 -14 28 -16 29 -18 18 -20 22 -22 -23 -24 -25 25 -27 -28 -29 -30 -31
leaf_value=0.049357332172619672 0.030315109035797941 0.15772076586119774 0.086552567351486073 -0.0052446516627010472 0.019270142788262817 0.046690834616079431 0.21666879365631139 0.064143355143065198 -0.017951752003278872 0.0068392607887931582 -0.01160471423465206 0.040063879585824518 -0.025293456869645521 0.12259694327545048 0.1097388732084581 0.03922423453660559 0.054290049287715206 0.16400258011627794 0.11258175405706876 0.095005852661520201 0.082691957662743301 0.14118638182654844 -0.0018158416832965254 0.12964309887797909 0.2560039847354717 0.091231019561069313 0.043863733966662856 -0.03270289268684972 0.071808731157281216 -0.0073925742195280857
leaf_weight=24236.393550872803 1928532.9723846912 26934.788677930832 2177924.5944843292 321141.19002437592 5038861.931469202 59841.083711624146 39790.757496356964 1835550.2153477669 10500776.099758148 5881824.4022669792 5997771.9309515953 1826300.9943230152 15464561.722862959 88268.979810714722 1252018.6039452553 72612.32461810112 1812038.3240880966 214217.87840557098 1173963.9479322433 21987.492863893509 1217298.7491805553 1790683.8001894951 5686138.1346268654 843245.23963356018 11388.997468709946 30854.00604057312 1671437.2972538471 28148559.071460247 193894.16034793854 4069404.9886002541
leaf_count=9394 587708 4798 460831 797 1664525 18357 4714 466347 4064067 2035991 2246067 552191 6111314 2447 220055 23654 489275 24149 152057 5512 275547 143537 2052393 108205 2447 5641 477393 11431226 2536 1518071
internal_value=0 -0.222185 1.07535 1.461 0.074569 -0.346615 1.52424 0.706535 -0.18738 -0.0252521 -0.0836262 0.33069 -0.40042 1.72744 1.26688 -0.196449 0.567023 1.76622 1.65288 -0.0886591 0.953859 1.90435 -0.0192363 1.82142 1.11329 1.80874 0.488075 -0.435097 1.16929 -0.0876703
internal_weight=0 8.28621e+07 1.656e+07 8.09515e+06 2.44798e+07 5.83822e+07 7.77401e+06 8.46486e+06 1.47449e+07 1.76147e+07 1.17328e+07 6.86516e+06 4.36374e+07 4.34406e+06 3.42994e+06 1.46428e+07 5.41201e+06 4.0619e+06 2.23143e+06 1.17059e+07 3.05285e+06 1.83047e+06 5.70813e+06 1.05746e+06 102084 42243 3.59997e+06 2.81728e+07 282163 4.14202e+06
internal_count=35161246 31745648 3415598 1119328 8561477 23184171 1118531 2296270 5632237 6344761 4308770 2216716 17551934 437645 680886 5605792 1554376 432662 284411 4303972 741894 148251 2057905 132354 26445 8088 1065101 11440620 4983 1541725
cat_boundaries=0 95 190 286 380 475 570 665
cat_threshold=0 0 0 0 0 0 0 0 0 0 0 0 0 0 0 0 0 0 128 0 2147483648 0 0 0 0 0 0 268435456 2 0 0 272630784 0 0 0 0 0 0 0 0 0 0 0 0 0 0 0 0 0 0 0 0 0 0 0 0 0 0 0 0 2048 0 0 0 0 0 0 0 0 16777216 0 4194304 1024 0 0 67108864 67108864 4096 66560 16384 0 256 4096 1073741824 134217728 12 134742016 1048576 0 0 33554432 4194304 537001988 0 16777216 0 0 0 0 0 0 0 0 0 0 0 1024 0 0 0 0 0 0 0 0 0 0 0 0 0 0 0 0 0 0 0 0 0 0 0 0 0 0 0 0 0 0 0 0 0 0 0 0 8 0 0 0 0 0 0 0 0 0 4194304 0 0 0 0 0 0 4194304 0 0 1024 0 32768 0 525312 0 64 0 100925440 0 512 16384 67108864 2097152 64 4608 134217728 36 134750208 201326592 0 2048 0 4194304 536870916 0 2097152 0 0 0 0 0 0 0 4 0 0 33554432 0 0 0 0 0 0 0 0 0 0 64 0 0 0 0 0 0 0 0 0 0 0 0 0 0 0 0 0 0 0 0 0 0 0 0 0 0 0 0 1073741824 0 0 0 0 16 0 0 0 0 0 0 0 0 0 0 0 0 1024 0 32768 65536 1024 256 0 67108868 262144 4096 66560 16384 0 16896 0 0 0 0 134225920 201326592 32768 268437504 33554432 33554496 0 16384 2097152 256 0 0 0 0 0 0 0 0 0 0 528384 0 0 0 0 0 0 0 0 0 0 0 0 0 0 0 0 0 0 0 0 0 0 0 0 0 0 0 0 0 0 0 0 0 0 0 0 0 0 0 0 0 0 0 0 0 0 0 0 0 134217728 0 0 0 524288 0 0 0 0 16777216 0 541065216 1 256 0 67108864 2048 4096 8455168 33554432 0 768 0 71319560 512 1081344 0 1048576 0 0 33554432 33554496 131072 516 0 0 0 0 0 0 0 0 0 0 0 0 0 0 0 0 0 0 0 0 0 0 32 0 64 0 0 0 0 0 0 0 0 0 0 0 0 0 0 0 0 0 0 0 0 0 0 0 0 0 0 0 0 0 0 4096 16777216 128 4194304 0 134217728 0 0 0 4194304 0 0 256 2113536 16842752 0 4194304 0 4194304 1024 512 67108864 0 1048576 33554432 0 0 4198400 545263616 0 4 524288 0 0 0 0 4194304 536870912 131072 553648128 0 0 0 0 0 0 0 0 0 0 0 0 0 0 0 0 0 0 0 0 0 0 0 0 0 0 8 268435456 8194 0 8208 268436480 32 73728 0 0 0 0 0 0 0 0 0 0 0 0 0 0 65544 4608 0 0 0 0 4194304 0 0 0 0 0 0 0 0 0 1 0 0 0 0 0 0 0 524288 0 0 0 67108864 0 8388608 32768 67108864 0 0 8519680 0 32 8192 0 32768 2048 0 0 537001984 0 18874368 0 0 0 0 0 0 0 0 0 0 528384 1024 0 0 0 0 0 0 0 0 131072 64 536870912 0 0 0 0 0 8192 0 16785408 2048 0 8192 4 0 0 0 0 0 0 0 0 0 0 0 0 0 0 4096 524288 0 2147483648 0 4194304 0 0 0 0 0 0 0 0 0 0 4194304 0 536870912 0 0 0 0 536870976 256 0 0 0 0 0 0 0 2181038080 0 4194304 1024 0 0 0 0 0 67108864 8193 0 1073741824 541081600
shrinkage=0.075


Tree=5
num_leaves=31
num_cat=5
split_feature=20 20 20 19 16 20 16 20 20 20 20 0 5 16 5 0 16 19 20 20 20 19 15 0 22 0 8 20 16 5
split_gain=2.0429e+07 2.56676e+06 2.23578e+06 440207 360422 335858 312903 281013 208697 103599 91682.1 80197.6 69422.5 64075 59601.4 53797.3 50635.6 56274.7 44767.7 40078.7 38133.5 38121.2 33482.6 39798.9 62622 32759.6 32085 30322 29371.1 28114.8
threshold=2.6250000000000004 0.80357143282890331 6.4821429252624521 163.50000000000003 10.500000000000002 1.5178571343421938 8.5000000000000018 0.33928571641445165 3.9464285373687749 65.839282989501967 13.446428775787355 0 2.5000000000000004 6.5000000000000009 2.5000000000000004 1 2.5000000000000004 1.0000000180025095e-35 10.125000000000002 1.0892856717109682 0.12500000372529033 1.0000000180025095e-35 1.2549999952316286 2 38.500000000000007 3 4 0.55357143282890331 155.50000000000003 2.5000000000000004
decision_type=10 8 8 10 8 10 10 10 8 8 10 9 2 10 2 9 10 10 10 10 10 10 2 9 2 9 1 10 10 2
left_child=1 7 8 4 18 6 11 15 14 10 29 -3 -7 -10 -2 22 19 -18 -4 25 -17 -8 -1 24 -24 -13 -12 -9 -11 -6
right_child=2 5 3 -5 9 12 21 27 13 28 26 16 -14 -15 -16 20 17 -19 -20 -21 -22 -23 23 -25 -26 -27 -28 -29 -30 -31
leaf_value=0.017067617571573931 0.044282810752308194 0.099522020488438404 0.070198028997986564 -0.0065328982270149404 0.10675097981455733 0.021765444527636284 0.1155964259016915 -0.022909302197459548 0.047913972079225944 0.083572676370886917 -0.036862500642143727 0.083471520468040739 0.0079674351383142109 0.066482237176411357 0.027299731883811799 -0.033809532430515273 0.031274737359098269 -0.0013616589594867487 0.087091148197482038 -0.0036676735678409563 -0.02866624630713421 0.013180679084458245 0.28721513674453891 0.050089237783885604 1.5115951545239705 -0.011912422067851368 0.11679630502870757 -0.016833790140591144 0.0373811029269282 0.087438011415333389
leaf_weight=24904.907873630524 1647673.7834267616 40077.7467918396 2412414.3168258667 249643.46602058411 722480.8343744278 2881840.6731622219 133100.10696935654 10062558.252652645 3596768.8113780022 509774.77293586731 7662.1244015693665 20293.86113858223 7115433.8415393829 1473677.9553954601 3946466.4999153614 19822157.757080555 356601.84592795372 1783718.1275055408 1391320.442861557 6090336.3488135338 13721815.404797554 24153.374214887619 3696.5260603427887 5351.280428647995 250.83228826522827 8278361.6756947041 3480108.0179591179 8544402.4074847698 91299.445953369141 1026276.3213732243
leaf_count=8575 472135 9303 483925 608 114276 961390 23466 4053937 906359 10228 693 5297 2392849 347893 1176582 8346143 115596 650203 203402 2223318 5687107 8336 557 1966 89 3132698 302495 3346047 615 175158
internal_value=0 -0.237773 0.881485 1.22394 1.25789 0.0142574 -0.0724117 -0.366837 0.563872 1.41396 1.45909 -0.0857361 0.159265 0.710809 0.430691 -0.421463 -0.0891621 0.0543459 1.01836 -0.110509 -0.422741 1.33155 0.831891 2.45135 4.85509 -0.155721 1.55279 -0.268259 1.02075 1.27223
internal_weight=0 7.89091e+07 2.05556e+07 9.89098e+06 9.64134e+06 2.67239e+07 1.67266e+07 5.21851e+07 1.06646e+07 5.8376e+06 5.23653e+06 1.65694e+07 9.99727e+06 5.07045e+06 5.59414e+06 3.35782e+07 1.65293e+07 2.14032e+06 3.80373e+06 1.4389e+07 3.3544e+07 157253 34203.5 9298.64 3947.36 8.29866e+06 3.48777e+06 1.8607e+07 601074 1.74876e+06
internal_count=35161246 30966877 4194369 1291400 1290792 9522456 6168217 21444421 2902969 603465 592622 6136415 3354239 1254252 1648717 14044437 6127112 765799 687327 5361313 14033250 31802 11187 2612 646 3137995 303188 7399984 10843 289434
cat_boundaries=0 94 189 282 374 375
cat_threshold=0 0 0 0 0 0 0 0 0 0 0 0 0 0 0 0 0 0 128 0 0 0 0 0 0 0 0 268435456 8192 0 8192 4195328 0 0 0 0 0 0 0 0 0 0 0 0 0 0 0 0 8 0 0 0 0 0 0 0 0 0 0 0 134217728 0 0 0 0 0 0 0 1024 16777216 0 0 525312 0 64 67108864 67371008 0 1024 33570816 67108864 0 0 4096 134217728 4 0 201326592 32768 0 0 4194304 537001988 1073742336 0 0 0 4 0 0 0 0 0 0 0 0 0 0 0 0 0 0 0 0 0 0 0 0 67108864 0 1074790400 0 0 0 0 1024 0 0 0 0 0 0 0 0 0 0 0 0 0 0 0 0 65536 4096 0 0 0 0 4194304 0 0 0 0 0 134217728 0 0 0 1 0 0 0 0 16777216 0 4194304 2098176 16777216 0 67108864 67371008 0 65536 0 0 512 8192 1073741824 0 0 0 1048576 0 0 33554432 37781504 131076 1073741824 2097156 0 0 0 0 0 0 0 0 0 0 0 0 0 0 0 0 0 0 0 0 0 0 0 0 0 0 0 0 0 0 0 0 0 0 0 0 0 0 0 0 0 0 0 0 0 0 0 0 0 0 0 0 0 0 0 0 0 0 0 0 0 0 0 0 0 0 0 0 0 0 0 0 1024 0 0 67108864 0 0 0 0 0 0 0 0 0 0 0 0 0 0 0 0 4 0 0 0 0 0 0 0 0 0 0 524288 1024 0 0 0 0 0 0 0 0 2147483680 0 0 0 0 0 0 0 0 0 16 268435456 0 0 0 0 0 0 0 0 0 0 0 0 0 0 0 0 0 512 0 0 0 0 0 0 0 0 0 0 0 0 0 0 0 4194304 0 0 0 0 32768 4194304 1 0 0 0 1048576 4096 512 512 0 2097920 8256 1077953024 0 8 134742016 1048576 0 2048 4096 33554496 4
shrinkage=0.075


Tree=6
num_leaves=31
num_cat=6
split_feature=18 18 18 18 19 19 16 19 18 0 0 18 19 18 19 0 19 0 5 5 5 5 19 19 24 19 17 0 5 0
split_gain=1.78619e+07 2.17991e+06 1.85838e+06 418094 358388 317060 284954 202636 111581 103643 88454.9 84528.8 64825.4 60223.4 58233.5 57513.6 50886.3 40780.2 38631.7 37956.5 32680.5 31667.6 27790.7 25812.4 25727.1 25674.5 24414.5 23945.2 22821.5 22045.1
threshold=2.6428570747375493 0.78571429848670971 6.5000000000000009 149.35713958740237 1.7857142686843874 0.5000000149011613 12.500000000000002 4.2142856121063241 1.3571428656578066 0 1 0.21428572386503222 3.2142857313156132 4.0714285373687753 1.214285731315613 2 9.2142858505249041 3 2.5000000000000004 2.5000000000000004 2.5000000000000004 2.5000000000000004 0.35714286565780645 0.92857143282890331 15.500000000000002 6.6428573131561288 174.00000000000003 4 2.5000000000000004 5
decision_type=10 8 8 8 10 10 10 8 8 9 9 10 10 8 10 9 10 9 2 2 2 2 8 8 2 10 8 9 2 9
left_child=1 5 7 6 8 11 16 13 23 -7 -10 15 20 18 -11 -1 28 -8 -2 -9 -6 -12 -19 -3 27 -21 -5 -24 -4 -16
right_child=2 4 3 26 12 9 17 19 10 14 21 -13 -14 -15 29 -17 -18 22 -20 25 -22 -23 24 -25 -26 -27 -28 -29 -30 -31
leaf_value=0.070283113333390615 0.035049680504833099 -0.013490064567823633 0.074495615328274409 0.036320046286202112 0.019758303019563005 0.064816051508285843 0.10314633162760277 0.060625835938241959 0.11540144606539879 -0.01977497492556771 0.0083470269340121216 -0.024754584177812341 0.027618084231633862 0.039839049889585754 0.039725230151942958 -0.032390317292328503 0.078582755616550398 0.12735667331526751 0.020265528600312638 0.040718709503768109 0.0070288763726592766 -0.0020692244487513453 0.11462370487323632 -0.0058837545036400955 0.082682485070535355 0.055631247272114638 -0.01552252114548398 0.091369551552273345 0.058968123291408665 -0.0090025714948069931
leaf_weight=30716.841483592987 1411888.8350989819 5981366.2572801113 720970.27712154388 64356.205627441406 1598175.1003661156 87750.096178293228 1958910.4198548794 1316620.2049648762 38164.180389642715 10047751.9240098 2315635.1936023235 12464544.303944588 1663003.0242824554 2116523.51415658 53087.827343225479 25926865.335741758 2072515.1333246231 108169.04907751083 3360620.3383362293 2081876.8412771225 3909985.9386076927 5641805.1110534668 296324.83461475372 4323651.3480505943 1911875.9447000027 943830.76992416382 248012.68146896362 1575283.5576314926 2036046.9730463028 3179654.7013921738
leaf_count=8585 403501 2338648 130415 442 525607 19351 139318 286809 6433 4077736 817095 5191712 491651 547647 15457 11228888 289793 13672 1004632 518431 1312158 2011395 26950 1611142 191375 198716 353 155297 396045 1201992
internal_value=0 -0.233797 0.78351 1.07581 0.00571642 -0.351596 1.10916 0.497429 -0.0685357 -0.218948 0.0201108 -0.397748 0.195206 0.390788 -0.226106 -0.430251 0.929379 1.25757 0.328523 0.666613 0.142964 0.0128257 1.19831 -0.137316 1.18402 0.60494 -0.0645544 1.26737 0.840382 -0.109364
internal_weight=0 7.72622e+07 2.22238e+07 1.09925e+07 2.54718e+07 5.17904e+07 1.06801e+07 1.12314e+07 1.83006e+07 1.33682e+07 7.9956e+06 3.84221e+07 7.17116e+06 6.88903e+06 1.32805e+07 2.59576e+07 4.82953e+06 5.85056e+06 4.77251e+06 4.34233e+06 5.50816e+06 7.95744e+06 3.89165e+06 1.0305e+07 3.78348e+06 3.02571e+06 312369 1.87161e+06 2.75702e+06 3.23274e+06
internal_count=35161246 30857850 4303396 1343660 9114129 21743721 1342865 2959736 6784713 5314536 2834923 16429185 2329416 1955780 5295185 11237473 816253 526612 1408133 1003956 1837765 2828490 387294 3949790 373622 717147 795 182247 526460 1217449
cat_boundaries=0 95 190 285 381 476 571
cat_threshold=0 0 0 0 0 0 0 0 0 0 0 0 0 0 0 0 0 0 128 0 2147483648 0 0 0 0 0 0 0 2 0 0 272630784 0 0 0 0 0 0 0 0 0 0 0 0 0 0 0 0 0 0 0 0 0 0 4194304 0 0 0 0 0 2048 0 0 0 0 0 0 0 0 16777216 0 4194304 1024 0 0 67108864 67108864 4096 66560 0 0 256 4096 1073741824 1024 12 134742016 1048576 0 0 0 4202560 537001988 0 16777216 0 0 0 0 0 0 0 0 0 0 0 1024 0 0 0 0 0 0 0 0 0 0 0 0 0 0 0 0 0 0 0 0 0 0 0 0 0 0 0 0 0 0 0 0 0 0 0 0 8 0 0 0 0 0 0 0 0 0 4194304 0 0 0 0 0 0 4194304 0 0 1024 16777216 32768 0 525312 0 64 67108864 100925440 0 8454656 33570816 67108864 0 0 4608 134217728 36 0 201326592 0 2048 0 0 536870916 512 2097152 0 0 0 4 0 0 0 0 0 0 0 0 0 0 0 0 0 0 0 0 2147483648 0 0 0 0 0 0 268435456 8194 0 8192 272630784 0 73728 0 0 0 0 0 0 0 0 0 0 0 0 0 0 65536 4096 0 0 0 0 0 0 0 0 0 0 0 0 0 0 0 0 0 0 0 16777216 0 0 1024 16777216 0 67108864 67371008 0 65536 0 0 256 8192 131072 0 0 0 1048576 32768 0 33554432 37781504 131072 0 16777216 0 0 0 0 0 0 0 0 0 0 0 0 0 0 0 0 0 0 0 0 0 0 0 0 0 0 0 0 0 0 0 0 0 0 0 0 0 0 0 0 0 0 0 0 536870912 0 0 0 0 0 1073741824 0 0 0 0 16 0 0 0 0 0 0 0 0 0 0 0 0 0 0 32768 2097152 0 256 0 67108864 262144 4096 66560 49152 67108864 17152 0 8392704 0 8 134225920 134217728 2048 0 33554432 33554496 131140 0 2097152 8 0 0 0 0 0 0 0 0 0 0 0 0 0 0 0 0 0 0 0 0 0 0 32 0 0 0 0 0 0 0 0 0 0 0 0 0 0 0 0 0 0 0 0 0 0 0 0 0 0 0 0 16384 0 0 0 5120 0 128 4194304 0 134217728 0 0 0 4194304 0 0 272 17536 65536 64 0 0 4194304 1088 262144 67108864 32 0 0 0 0 4198400 1077936128 0 4 524288 0 32768 0 0 4202496 0 0 536879104 0 0 0 0 0 0 0 0 0 0 528384 1024 0 0 0 0 0 0 0 0 131072 64 0 8 0 0 0 268435456 8192 0 16785424 2048 0 8192 4 0 0 0 0 0 0 0 0 0 0 0 0 0 8 4096 524288 0 0 0 0 0 0 0 0 0 8192 0 0 0 0 0 0 536870912 0 0 0 0 536870912 256 0 0 0 0 0 33554432 0 33554432 0 4194304 0 0 0 134217728 0 0 67108896 1 0 1073741824 541196288
shrinkage=0.075


Tree=7
num_leaves=31
num_cat=4
split_feature=20 20 20 18 18 20 16 20 18 20 0 16 5 20 0 17 24 16 0 18 5 20 5 5 16 8 18 17 20 16
split_gain=1.61211e+07 2.08592e+06 1.59167e+06 358796 266019 231960 227625 174989 173754 133805 83098.7 50026.7 47177.8 46207.9 44212.9 40149.5 38541.8 36974.4 35421.6 34085.9 31949.2 30215.5 29521.3 28583.8 25633.8 25448.3 24820.6 23837.4 22428.4 20553.1
threshold=2.3392857313156132 0.73214286565780651 6.1250000000000009 149.35713958740237 1.7857142686843874 0.30357143282890325 9.5000000000000018 3.553571462631226 4.5000000000000009 1.2678571343421938 0 5.5000000000000009 2.5000000000000004 12.517857074737551 1 86.500000000000014 15.500000000000002 9.5000000000000018 2 1.5000000000000002 2.5000000000000004 0.12500000372529033 2.5000000000000004 2.5000000000000004 14.500000000000002 3 14.071428775787355 174.00000000000003 0.51785713434219371 22.500000000000004
decision_type=10 8 10 8 10 10 10 10 10 10 9 10 2 10 9 8 2 10 9 10 2 10 2 2 10 1 10 10 10 10
left_child=1 5 7 6 9 14 16 12 20 10 -3 -9 -2 -8 -1 25 18 23 -4 28 -6 -16 -11 -12 -10 -15 -13 -5 -7 -27
right_child=2 4 3 27 8 19 13 11 24 22 17 26 -14 15 21 -17 -18 -19 -20 -21 -22 -23 -24 -25 -26 29 -28 -29 -30 -31
leaf_value=0.050669425417785408 0.034019637688492713 0.10202745044494266 0.094448429796389316 0.036044566225399331 0.017461088515591635 -0.023451935836728669 0.071617616451400246 0.036839594276360563 0.054604604345343068 0.010666087299283372 -0.0049459387596522287 0.049941713720848324 0.01999007785583776 -0.036988793335526432 -0.03357120605550197 0.062041926068689815 0.052103584006996329 0.10151559491217717 0.062938421566625033 0.0079066762115769136 0.0056068428742521575 -0.028622947316402969 -0.00020016865196347249 -0.012535022846774012 0.10498159138110051 0.080731835273929992 0.12898711812271829 -0.015020839059295504 -0.018009347823983609 0.090590257297463353
leaf_weight=36675.479164838791 1918107.1432929039 37196.591890573502 223722.19084978104 63196.11750793457 1811211.0064442158 10041049.768970013 2275497.631670475 4226879.8744497299 229716.8055574894 1981083.8734965324 3922248.6358349323 2196498.2732484341 4538199.0399968624 9402.3770685195923 18559808.820599794 417061.74358177185 2201141.9950180054 16640.950571298599 1955587.9745628834 230196.39365077019 4351426.5144503117 11088553.482357264 4847810.3797721863 9684953.40157938 75486.395321846008 2027569.0239477158 22574.680682182312 275929.66809082031 7396202.5909273624 2878163.8271155357
leaf_count=11219 536544 6269 31060 419 583688 4267150 332859 1019255 51274 692082 1510570 486186 1337951 790 8346067 6688 358573 3409 320816 88275 1451554 4871487 1721134 3742387 8723 192367 3359 385 3020131 158575
internal_value=0 -0.241174 0.683985 0.940949 -0.0191228 -0.367588 0.969643 0.438474 0.157686 -0.0749343 -0.132069 0.555026 0.322108 1.0742 -0.421583 1.12512 0.788049 -0.136145 0.882318 -0.276865 0.121211 -0.42294 0.0393622 -0.137966 0.894193 1.15039 0.676611 -0.0733972 -0.281912 1.15354
internal_weight=0 7.43103e+07 2.52295e+07 1.23273e+07 2.69578e+07 4.73525e+07 1.19881e+07 1.29023e+07 6.46784e+06 2.04899e+07 1.3661e+07 6.44595e+06 6.45631e+06 7.60769e+06 2.9685e+07 5.3322e+06 4.38045e+06 1.36238e+07 2.17931e+06 1.76674e+07 6.16264e+06 2.96484e+07 6.82889e+06 1.36072e+07 305203 4.91514e+06 2.21907e+06 339126 1.74373e+07 4.90573e+06
internal_count=35161246 30375419 4785827 1402532 9771090 20604329 1401728 3383295 2095239 7675851 5262635 1508800 1874495 691279 13228773 358420 710449 5256366 351876 7375556 2035242 13217554 2413216 5252957 59997 351732 489545 804 7287281 350942
cat_boundaries=0 94 189 284 285
cat_threshold=0 0 0 0 0 0 0 0 0 0 0 1024 0 0 0 0 0 0 128 0 32 0 0 0 0 0 0 268435456 0 0 16 4195328 0 0 0 0 0 0 0 0 0 0 0 0 0 0 0 0 8 0 0 0 0 0 0 0 0 0 0 0 134217728 0 0 0 0 4194304 0 0 1024 16777216 32768 0 1024 256 64 67108864 67371008 0 0 16896 0 0 64 0 0 4 524288 201326592 32768 0 4096 0 131076 1073741824 0 0 0 4 0 0 0 0 0 0 0 0 0 0 0 0 0 0 0 0 0 0 0 0 67108864 0 0 4194304 0 0 0 1024 0 0 0 0 0 0 0 0 0 0 0 0 0 0 0 0 65536 4096 0 0 0 0 4194304 0 0 0 0 0 134217728 0 0 0 0 0 0 0 0 16777216 0 4194304 2622464 16777216 0 67108864 84148224 0 65536 0 67108864 0 8192 8388608 0 0 524288 1048576 0 0 33554432 37781504 131072 1073741824 4 0 0 0 0 0 0 0 0 0 0 0 0 0 0 0 0 0 0 0 0 0 0 0 0 0 0 0 1 0 0 0 0 0 0 0 0 0 0 0 0 0 0 0 0 0 0 0 0 0 0 0 0 0 0 0 4195456 16818176 0 4194304 0 2 0 0 0 2048 268435456 0 128 17536 16842752 0 4194304 1024 4194304 0 0 67108864 0 0 0 0 0 4096 4194304 0 4 524288 1048576 0 0 0 4194304 536870913 0 553648128 4
shrinkage=0.075


Tree=8
num_leaves=31
num_cat=6
split_feature=20 20 20 20 20 19 16 16 20 16 20 0 20 20 5 0 5 0 21 19 5 0 20 19 20 0 5 5 1 16
split_gain=1.44854e+07 1.87075e+06 1.43287e+06 209859 208861 200342 232447 157954 116354 61928.4 49604.6 67913.1 45082.1 56196.4 41580.9 40653.6 37865 37064.2 31257.9 29391.6 28907.2 28517.1 26297.9 25100.7 24563 23454 22928.9 22786.8 20899.9 20355.4
threshold=2.1964285373687749 0.69642856717109691 5.2321429252624521 0.26785714924335485 1.2321428656578066 163.50000000000003 8.5000000000000018 8.5000000000000018 3.2321428060531621 1.5000000000000002 1.2321428656578066 0 11.839285373687746 65.839282989501967 2.5000000000000004 1 2.5000000000000004 2 7.9107141494750985 1.0000000180025095e-35 2.5000000000000004 3 0.48214285075664526 1.0000000180025095e-35 0.089285716414451613 4 2.5000000000000004 2.5000000000000004 5 26.500000000000004
decision_type=10 8 8 10 8 10 8 10 8 10 10 9 10 10 2 9 2 9 10 10 2 9 10 10 10 9 2 2 1 10
left_child=1 3 8 17 20 6 18 9 16 10 11 -6 26 29 -10 -13 -2 -1 -4 -9 -3 -19 -5 -11 -23 -17 -8 -25 -27 -14
right_child=2 4 5 22 7 -7 12 19 14 23 -12 15 13 -15 -16 25 -18 21 -20 -21 -22 24 -24 27 -26 28 -28 -29 -30 -31
leaf_value=0.052838783458264045 0.028814903409857977 -0.0039252835030275327 0.045388542299585902 -0.023853292652033939 0.14688741071105268 -0.0052528951220178052 0.070160510276578061 0.07926407528858509 0.043444610329698326 0.023943454216660592 0.0014786428153099433 0.10653607712829806 0.072012022133437284 0.054072424280346164 0.030272279504110058 0.08410941495783307 0.016161666863929558 0.016481401724301785 0.056851260244935475 0.021261314678898 -0.011761066916287337 -0.033969131933226294 -0.018085165726380994 0.01397335658413059 -0.029355541937442629 -0.0060360008537570934 0.056723734018907943 0.0033801187062106348 -0.023308894405696202 0.081213116402629251
leaf_weight=29043.222277402878 1896500.0838346481 3722975.2175571918 3143750.4458661079 10410616.264642715 14806.50655412674 249597.54744625092 1200467.4224362373 178300.39011073112 1939618.1590309143 552169.2236020565 6519109.9469218254 15481.286432981491 3110325.44566679 745625.40649986267 4419469.6619110107 13172.491612911224 4456153.5929262638 68288.750293731689 2329890.8134710789 67838.790954113007 9174197.5990915298 15574564.270124435 7760191.3043079376 1759249.8808577061 11130009.487847328 660976.47470617294 1764143.846950531 3256616.6759498119 975759.34339475632 2393010.4005184174
leaf_count=7893 531595 1446681 583506 4560595 3444 631 167450 24479 436063 170439 2280962 3098 271679 10768 1085312 3576 1325208 28029 330610 20754 3601980 7250076 3239592 581678 5068291 246292 268518 1113534 380495 118018
internal_value=0 -0.243372 0.608347 -0.368162 -0.0348237 0.818357 0.833454 0.0496927 0.361576 0.0354969 -0.0197721 -0.172982 0.93042 0.9786 0.457201 -0.191943 0.265855 -0.424408 0.670236 0.843705 -0.126655 -0.425633 -0.285199 0.116884 -0.427283 -0.207081 0.828863 0.0946075 -0.21778 1.01351
internal_weight=0 7.18834e+07 2.76486e+07 4.49727e+07 2.69107e+07 1.49368e+07 1.46872e+07 1.40135e+07 1.27117e+07 1.37673e+07 8.19931e+06 1.6802e+06 9.21357e+06 6.24896e+06 6.35909e+06 1.66539e+06 6.35265e+06 2.68019e+07 5.47364e+06 246139 1.28972e+07 2.67729e+07 1.81708e+07 5.56804e+06 2.67046e+07 1.64991e+06 2.96461e+06 5.01587e+06 1.63674e+06 5.50334e+06
internal_count=35161246 30031888 5129358 20154476 9877412 1751180 1750549 4828751 3378178 4783518 2917867 636905 836433 400465 1521375 633461 1856803 12354289 914116 45233 5048661 12346396 7800187 1865651 12318367 630363 435968 1695212 626787 389697
cat_boundaries=0 95 190 285 380 474 475
cat_threshold=0 0 0 0 0 0 0 16777216 0 0 4096 0 0 0 0 0 0 0 128 0 0 0 0 0 67108864 0 0 268435456 8192 0 8704 4195328 0 0 0 0 0 0 0 0 0 0 0 0 0 0 0 0 0 0 0 0 0 0 0 0 0 0 0 0 0 0 0 0 0 4194304 0 0 0 0 0 0 0 96 64 0 2048 0 0 16896 0 768 0 71319560 0 0 524288 1048576 32768 0 512 0 0 1 536879136 0 0 0 4 0 0 0 4194304 0 0 0 1024 0 0 0 0 0 0 0 0 32 0 0 32768 0 0 0 0 0 0 0 268435456 0 0 4 0 0 0 0 0 0 0 0 0 0 0 0 0 0 1024 0 0 0 0 0 0 0 0 0 0 0 0 0 0 0 0 0 0 263168 16777216 32768 0 1024 16 0 0 68681728 0 512 0 32768 0 8192 1073742336 16 0 8192 67108864 0 0 33558784 0 536870912 4 131072 0 0 0 4 0 0 0 0 0 0 0 0 0 0 0 0 0 0 0 0 0 0 0 0 67108864 2097152 1073741824 0 0 0 0 1024 0 0 0 0 0 0 0 0 0 0 0 0 0 0 0 0 65544 4096 0 0 0 0 4194304 0 0 0 0 0 134217728 0 0 0 0 0 0 0 0 16777216 0 4194304 539493376 16777216 0 67108864 67108864 0 65536 0 0 512 8192 1073872896 0 1073741824 0 0 0 0 33554432 37781504 131072 1073741824 4 0 0 0 0 0 0 0 0 0 0 0 0 0 0 0 0 0 0 0 0 0 0 0 0 0 0 1048576 0 8192 0 0 0 32 1056768 0 0 0 0 0 0 0 0 0 0 0 0 0 0 0 512 0 0 0 0 0 0 0 0 0 0 0 0 0 0 0 4194304 0 0 0 0 32768 0 0 524288 0 0 262144 0 8388608 1098240 67108864 0 4168 8388608 134217728 32 532480 1048576 32768 2048 67108864 0 536870916 0 538968064 128 0 0 0 0 0 0 0 16 0 0 512 0 0 0 0 0 0 0 0 0 0 0 4194304 0 0 8 0 2 4 0 0 0 0 0 0 0 0 0 0 0 0 0 0 0 0 0 0 8 0 0 2048 0 0 0 4096 0 0 0 0 134217728 0 0 0 262144 0 0 268435456 0 0 0 541065216 537395200 524288 0 0 32 0 0 0 1024 2097152 8 4096 0 32780 0 0 0 2048 0 4194304 2363392 512 68
shrinkage=0.075


Tree=9
num_leaves=31
num_cat=6
split_feature=20 20 20 18 18 20 20 20 20 0 5 5 5 5 0 0 24 18 18 8 16 5 16 0 20 0 24 20 20 19
split_gain=1.30861e+07 1.63346e+06 1.34532e+06 220820 220765 213487 187315 166350 120124 78719.5 44038.1 38899.1 36306.3 36131.6 36071.1 33694.8 32218.3 31256.8 30679.8 29453 28527.4 26750.1 26179.2 26133.2 24924.6 23108.2 20832.9 18134.6 15032.2 14611.6
threshold=2.0178571939468388 0.66071426868438732 5.0178570747375497 3.3571429252624516 149.35713958740237 9.7678570747375506 0.26785714924335485 1.1964285969734194 3.053571462631226 0 2.5000000000000004 2.5000000000000004 2.5000000000000004 2.5000000000000004 1 2 12.500000000000002 1.928571403026581 1.3571428656578066 3 10.500000000000002 2.5000000000000004 15.500000000000002 4 0.089285716414451613 5 16.500000000000004 0.44642856717109686 1.553571403026581 0.35714286565780645
decision_type=10 8 10 10 10 10 10 10 10 9 2 2 2 2 9 9 2 10 10 1 10 2 10 9 10 9 2 10 10 8
left_child=1 6 8 7 5 10 14 9 12 -3 -4 -9 -2 -10 -1 -11 25 21 27 -18 -5 -17 -21 -16 -25 -7 -12 -8 -13 -15
right_child=2 3 4 20 -6 16 18 11 13 15 26 28 -14 29 23 17 19 -19 -20 22 -22 -23 -24 24 -26 -27 -28 -29 -30 -31
leaf_value=0.052173348306910457 0.024742706953485953 0.084779753628705892 0.055253015467843974 0.033710780182579718 -0.005248296789573898 0.086949384566162691 -0.024214125302079316 0.0092639640339165965 0.03856217903001799 0.066947722060026749 0.047060118340377544 -0.0038297550662284565 0.013106945841683442 0.056060030317718744 0.015424672984490873 -0.0060379205179169953 -0.037110645294101061 0.0084357669223029865 0.0049171866316970719 0.053759013462140688 0.07354589504031947 -0.01310706303659809 0.064507588916339315 -0.033831059640477862 -0.02911142476399093 0.067261503023223299 0.037188773581134413 -0.019221701127824318 0.0028717370546011774 0.026254083714493583
leaf_weight=28840.891038179398 2156043.1963303089 49162.548827648163 2171295.6409409046 398445.13993310928 335394.54586791992 374201.57473802567 8639402.8920009136 3144486.0806105137 2132772.5689253807 31711.27227306366 2542498.9227542877 3984726.6551883221 5021507.6889820099 94363.330375909805 65916.811397314072 4246830.6517519951 17446.719116687775 478228.64685535431 244465.95087838173 2036624.0721235275 135517.38160133362 10347302.310860157 3406638.8533520699 15061233.394533873 10812800.162595034 3251813.2363452911 2281962.5845015049 7776668.6448400021 3569287.2612111568 4725157.2484078407
leaf_count=7752 608095 7874 337154 98850 811 29105 3894474 1070645 472250 6993 440958 1449785 1513186 20158 25835 1672646 1584 166345 97180 219629 16755 4141454 189956 7253255 5070485 238456 398848 3335427 1217069 1158232
internal_value=0 -0.247808 0.538318 -0.0522604 0.733004 0.74975 -0.368843 -0.0654079 0.312107 -0.13281 0.61844 0.0300602 0.221362 0.405792 -0.421938 -0.136923 0.850843 -0.139089 -0.286085 0.802321 0.584277 -0.147333 0.806478 -0.423181 -0.424783 0.923916 0.565213 -0.291321 -0.00884382 0.357836
internal_weight=0 6.9015e+07 3.05477e+07 2.63857e+07 1.64179e+07 1.60825e+07 4.26293e+07 2.58517e+07 1.41298e+07 1.51532e+07 6.99576e+06 1.06985e+07 7.17755e+06 6.95229e+06 2.59688e+07 1.51041e+07 9.08672e+06 1.50724e+07 1.66605e+07 5.46071e+06 533963 1.45941e+07 5.44326e+06 2.594e+07 2.5874e+07 3.62601e+06 4.82446e+06 1.64161e+07 7.55401e+06 4.81952e+06
internal_count=35161246 29532824 5628422 9848416 1856501 1855690 19684408 9732811 3771921 5995312 1176960 3737499 2121281 1650640 12357327 5987438 678730 5980445 7327081 411169 115605 5814100 409585 12349575 12323740 267561 839806 7229901 2666854 1178390
cat_boundaries=0 94 189 282 283 378 473
cat_threshold=0 0 0 0 0 0 0 0 0 0 0 0 0 0 0 0 0 0 128 0 0 0 0 0 0 0 0 268435456 0 0 0 1024 0 0 0 0 0 0 0 0 0 0 0 0 0 0 0 0 8 0 0 0 0 0 0 0 0 0 0 0 0 0 0 0 0 4194304 0 0 1024 16777216 32768 0 1024 0 64 67108864 68419584 0 1024 16896 67108864 0 0 4104 134217728 4 524288 201326592 32768 0 4096 4194304 536870916 1073742336 0 0 0 4 0 0 0 0 0 0 0 0 0 0 0 0 0 0 0 0 0 0 0 0 0 2097152 1073741824 0 0 0 0 1024 0 0 0 0 0 0 0 0 0 0 0 0 0 0 0 0 65536 4096 0 0 0 0 4194304 0 0 0 0 0 134217728 0 0 0 0 0 0 0 0 16777216 0 4194304 539493376 16777216 0 67108864 67371008 0 65536 0 0 512 8192 1073872896 0 0 0 0 0 0 33554432 33587200 537001984 0 2097156 0 0 0 0 0 0 0 0 0 0 0 1024 0 0 0 0 0 0 0 0 2147483680 0 0 0 0 0 0 0 8192 0 8208 4194304 0 0 0 0 0 0 0 0 0 0 0 0 0 0 0 0 0 512 0 2048 0 0 0 0 0 0 4194304 0 134217728 0 0 0 0 0 0 0 0 0 0 0 524288 256 0 0 33554432 4096 8454656 33554432 0 2097920 8192 1073741824 512 1048608 134217728 1048576 0 2048 0 33554432 131072 4 0 0 0 0 0 0 0 0 0 0 0 0 0 0 0 0 0 0 0 0 0 0 0 0 67108864 0 1048576 0 8192 0 0 0 32 8192 0 0 0 0 0 0 0 0 0 0 0 0 0 0 8 512 524288 0 0 0 0 0 0 0 0 0 0 0 0 0 1 4194304 0 0 0 0 32768 0 0 524288 0 0 0 0 8388608 49664 67108864 0 4104 8388608 134217728 32 532480 1048576 32768 2048 67108864 4194304 4 1073741824 536870912 0 0 0 0 0 0 0 0 0 0 16777216 0 0 0 0 0 0 0 0 0 0 0 0 0 0 0 0 0 0 0 0 0 0 0 0 0 0 0 0 0 0 0 0 0 0 0 0 0 33554432 0 0 0 0 0 0 1053712 0 128 4194304 67108864 134217760 0 0 0 4196352 0 0 256 2114560 16842752 0 4194304 0 4194304 1024 0 67108864 0 0 0 0 0 4198400 0 0 4 524288 1048576 0 2147483648 0 4194304 536870912 0 536870912
shrinkage=0.075


end of trees

feature importances:
rmean_7_28=77
rmean_7_7=58
item_id=41
wday=40
lag_7=25
rmean_28_7=18
lag_28=15
rmean_28_28=13
mday=7
event_name_1=3
dept_id=1
sell_price=1
week=1

parameters:
[boosting: gbdt]
[objective: poisson]
[metric: rmse]
[tree_learner: serial]
[device_type: cpu]
[data: ]
[valid: ]
[num_iterations: 100]
[learning_rate: 0.075]
[num_leaves: 31]
[num_threads: 16]
[max_depth: -1]
[min_data_in_leaf: 20]
[min_sum_hessian_in_leaf: 0.001]
[bagging_fraction: 0.75]
[pos_bagging_fraction: 1]
[neg_bagging_fraction: 1]
[bagging_freq: 1]
[bagging_seed: 3]
[feature_fraction: 0.8]
[feature_fraction_bynode: 1]
[feature_fraction_seed: 2]
[early_stopping_round: 0]
[first_metric_only: 0]
[max_delta_step: 0]
[lambda_l1: 0]
[lambda_l2: 0.1]
[min_gain_to_split: 0]
[drop_rate: 0.1]
[max_drop: 50]
[skip_drop: 0.5]
[xgboost_dart_mode: 0]
[uniform_drop: 0]
[drop_seed: 4]
[top_rate: 0.2]
[other_rate: 0.1]
[min_data_per_group: 100]
[max_cat_threshold: 32]
[cat_l2: 10]
[cat_smooth: 10]
[max_cat_to_onehot: 4]
[top_k: 20]
[monotone_constraints: ]
[feature_contri: ]
[forcedsplits_filename: ]
[forcedbins_filename: ]
[refit_decay_rate: 0.9]
[cegb_tradeoff: 1]
[cegb_penalty_split: 0]
[cegb_penalty_feature_lazy: ]
[cegb_penalty_feature_coupled: ]
[verbosity: 1]
[max_bin: 255]
[max_bin_by_feature: ]
[min_data_in_bin: 3]
[bin_construct_sample_cnt: 200000]
[histogram_pool_size: -1]
[data_random_seed: 1]
[output_model: LightGBM_model.txt]
[snapshot_freq: -1]
[input_model: ]
[output_result: LightGBM_predict_result.txt]
[initscore_filename: ]
[valid_data_initscores: ]
[pre_partition: 0]
[enable_bundle: 1]
[max_conflict_rate: 0]
[is_enable_sparse: 1]
[sparse_threshold: 0.8]
[use_missing: 1]
[zero_as_missing: 0]
[two_round: 0]
[save_binary: 0]
[header: 0]
[label_column: ]
[weight_column: ]
[group_column: ]
[ignore_column: ]
[categorical_feature: ]
[predict_raw_score: 0]
[predict_leaf_index: 0]
[predict_contrib: 0]
[num_iteration_predict: -1]
[pred_early_stop: 0]
[pred_early_stop_freq: 10]
[pred_early_stop_margin: 10]
[convert_model_language: ]
[convert_model: gbdt_prediction.cpp]
[num_class: 1]
[is_unbalance: 0]
[scale_pos_weight: 1]
[sigmoid: 1]
[boost_from_average: 1]
[reg_sqrt: 0]
[alpha: 0.9]
[fair_c: 1]
[poisson_max_delta_step: 0.7]
[tweedie_variance_power: 1.5]
[max_position: 20]
[lambdamart_norm: 1]
[label_gain: ]
[metric_freq: 1]
[is_provide_training_metric: 0]
[eval_at: ]
[multi_error_top_k: 1]
[num_machines: 1]
[local_listen_port: 12400]
[time_out: 120]
[machine_list_filename: ]
[machines: ]
[gpu_platform_id: -1]
[gpu_device_id: -1]
[gpu_use_dp: 0]

end of parameters

pandas_categorical:[]
