tree
version=v3
num_class=1
num_tree_per_iteration=1
label_index=0
max_feature_idx=24
objective=poisson
feature_names=item_id dept_id store_id cat_id state_id wday month year event_name_1 event_type_1 event_name_2 event_type_2 snap_CA snap_TX snap_WI sell_price lag_7 lag_28 rmean_7_7 rmean_28_7 rmean_7_28 rmean_28_28 week quarter mday
feature_infos=1071:2111:1725:437:1173:1195:1248:1762:2909:2970:381:402:1214:2580:2631:73:979:994:1027:1215:1392:1465:1715:2853:282:1368:1455:1605:1830:2600:303:377:454:720:739:1139:1152:1503:1523:1588:1589:2242:2427:2890:2958:2963:802:903:1023:1327:1763:1793:2197:2927:139:426:431:447:601:1144:1329:1397:1666:1746:2507:2727:2838:76:351:448:575:648:701:738:758:815:1096:1163:1176:1272:1399:1431:1500:1607:1675:1713:2165:2476:2527:2628:2701:2728:2868:3025:368:466:795:968:1348:1362:1571:1598:1622:1791:1809:1827:1840:2194:2398:2481:2611:2722:2881:2990:49:775:959:1063:1114:1131:1141:1171:1190:1198:1487:1510:1575:1656:1681:1728:2232:2495:2518:2571:2612:2851:100:159:246:265:317:361:544:837:989:1130:1196:1289:1506:1750:2084:2141:2264:2333:2659:2693:2852:20:248:355:530:545:604:674:944:993:1205:1370:1395:1784:2009:2156:2303:2348:2370:2408:2601:2806:2977:2987:46:186:213:296:358:371:419:879:950:1062:1075:1099:1111:1200:1206:1270:1275:1324:1375:1442:1532:1547:1579:1603:1651:1879:2014:2319:2387:2634:2925:2983:3033:8:188:189:219:312:332:370:451:577:689:827:855:1155:1303:1333:1406:1511:1524:1583:1706:1709:1711:1752:1990:2251:2439:2519:2539:2566:2704:2880:2884:2944:2978:206:218:281:292:311:339:405:406:416:470:472:527:533:672:705:784:881:919:922:931:958:963:983:1097:1110:1246:1295:1364:1386:1394:1496:1529:1536:1645:1674:1698:1805:1832:1888:2184:2226:2316:2357:2365:2378:2412:2500:2537:2542:2563:2635:2788:2937:2973:2995:3020:31:96:112:132:234:268:286:407:464:570:591:600:1053:1076:1117:1213:1234:1321:1476:1520:1578:1788:1804:1824:1848:1903:2073:2323:2337:2441:2621:2950:95:101:107:123:140:214:305:359:369:476:494:572:629:662:700:736:845:853:991:1029:1033:1080:1094:1132:1178:1204:1350:1356:1433:1454:1456:1474:1490:1580:1601:1602:1611:1736:1785:1802:1863:2114:2123:2158:2201:2342:2418:2538:2558:2579:2682:2700:2708:2716:2809:2810:2817:2967:3002:93:104:190:249:294:379:397:625:652:679:707:788:848:861:966:1074:1137:1180:1194:1209:1226:1260:1359:1445:1452:1473:1479:1486:1543:1680:1729:1738:1739:2240:2368:2402:2423:2458:2657:2670:2699:2900:2903:2911:2988:3030:7:22:308:395:408:422:449:471:477:558:592:706:726:766:790:829:874:924:965:1001:1032:1045:1134:1175:1280:1283:1421:1423:1466:1521:1531:1632:1633:1642:1661:1689:1700:1747:1776:1814:1878:1880:1979:2187:2283:2326:2331:2356:2360:2379:2384:2406:2437:2446:2510:2543:2576:2673:2688:2714:2721:2737:2814:2887:2962:3038:4:21:42:77:83:173:208:225:230:269:435:637:677:759:789:833:867:891:898:921:952:1015:1150:1244:1390:1468:1470:1477:1610:1620:1626:1653:1676:1717:1732:1744:1817:1870:1907:2045:2059:2062:2286:2322:2443:2466:2591:2607:2616:2748:2759:2771:2888:2898:2956:3021:3037:3043:16:146:164:250:293:421:489:520:608:649:694:763:897:930:956:1043:1060:1068:1092:1104:1290:1320:1345:1354:1412:1434:1505:1527:1574:1660:1705:1707:1716:1811:1992:2025:2028:2042:2088:2174:2250:2280:2292:2314:2320:2352:2386:2392:2419:2473:2485:2497:2498:2524:2593:2636:2715:2725:2746:2750:2940:2952:3029:70:170:231:291:328:396:468:490:632:634:640:717:746:770:794:846:911:914:932:933:1025:1034:1147:1207:1227:1241:1279:1309:1331:1334:1403:1407:1409:1426:1457:1480:1534:1570:1590:1647:1648:1668:1686:1712:1961:2108:2157:2186:2325:2327:2374:2424:2451:2468:2483:2513:2515:2525:2533:2581:2658:2662:2815:2867:2879:2941:3005:3009:3:41:113:154:181:223:272:280:301:551:580:678:695:737:980:1047:1124:1133:1135:1138:1264:1336:1341:1402:1492:1558:1572:1612:1667:1723:1761:1861:1887:1996:2055:2137:2168:2254:2281:2293:2307:2411:2455:2529:2648:2770:2793:2840:2844:2846:2902:2928:2938:2948:2954:3044:3045:15:62:89:98:157:179:182:194:207:228:260:329:334:356:389:417:443:465:474:589:630:645:684:722:733:757:771:782:824:870:877:927:995:1019:1036:1048:1058:1106:1148:1236:1288:1355:1369:1377:1429:1439:1448:1469:1482:1488:1522:1593:1615:1638:1641:1726:1745:1749:1815:1876:2007:2126:2245:2260:2278:2310:2339:2347:2380:2490:2528:2550:2570:2575:2646:2684:2685:2694:2718:2779:2835:2872:2895:2984:2986:57:71:241:274:295:315:341:354:363:409:411:423:461:561:631:650:735:847:901:938:954:1151:1164:1186:1223:1229:1255:1261:1418:1419:1430:1464:1561:1573:1721:1737:1759:1774:1780:1812:1822:1826:1920:2023:2066:2120:2159:2202:2218:2253:2255:2362:2415:2459:2493:2535:2567:2572:2573:2609:2630:2637:2671:2732:2778:2789:2811:2854:2876:2951:14:35:106:138:141:145:167:300:302:418:428:511:563:566:576:596:615:617:658:688:704:806:868:883:902:1016:1030:1040:1056:1077:1102:1143:1165:1166:1192:1300:1378:1410:1415:1528:1616:1619:1637:1639:1690:1692:1753:1849:1868:1987:2020:2021:2102:2130:2170:2182:2225:2315:2431:2450:2470:2604:2613:2629:2656:2702:2712:2757:2764:2801:2918:3022:37:59:61:63:69:160:314:319:372:390:399:415:424:503:538:546:548:568:579:607:621:687:725:749:796:828:831:936:971:982:1000:1007:1061:1088:1167:1179:1240:1294:1311:1332:1437:1444:1542:1544:1557:1563:1775:1782:1836:1890:1891:1927:1929:1954:1969:2044:2070:2090:2117:2143:2178:2220:2266:2313:2317:2340:2363:2467:2472:2474:2487:2514:2522:2686:2740:2791:2873:2892:2960:3003:3014:3026:3041:1:34:43:72:75:92:172:187:200:227:270:347:444:500:508:535:543:597:623:666:669:692:741:814:929:1083:1122:1201:1208:1221:1232:1233:1245:1256:1282:1405:1413:1414:1449:1495:1519:1545:1546:1624:1755:1800:1869:1874:1883:1901:1910:1914:1945:2239:2279:2291:2505:2569:2678:2705:2720:2758:2916:2965:3007:3015:3018:11:24:122:195:240:256:287:289:290:304:320:488:513:518:569:624:635:661:686:710:899:970:1049:1065:1086:1090:1112:1125:1224:1225:1250:1254:1278:1296:1385:1396:1427:1428:1450:1451:1512:1587:1629:1640:1652:1678:1683:1687:1807:1821:1886:1908:1913:1942:1952:1965:2015:2109:2110:2128:2129:2151:2217:2248:2267:2306:2321:2341:2385:2401:2425:2435:2452:2491:2517:2608:2689:2786:2839:2891:2894:2921:2923:2974:3028:3035:171:192:202:348:373:398:467:495:504:531:602:614:647:660:754:756:783:810:885:904:908:946:1118:1158:1170:1184:1191:1222:1286:1293:1388:1401:1562:1565:1586:1606:1618:1702:1730:1733:1781:1857:1885:1906:1915:1974:2022:2200:2204:2210:2230:2287:2289:2318:2332:2355:2375:2389:2403:2436:2456:2482:2526:2554:2592:2599:2618:2691:2703:2730:2752:2767:2804:2905:2935:2939:2966:3040:65:67:94:136:142:152:288:310:327:346:362:366:653:680:934:1107:1146:1235:1335:1351:1366:1374:1463:1499:1564:1630:1635:1657:1695:1751:1926:1997:2033:2071:2147:2161:2207:2208:2223:2236:2324:2489:2511:2548:2602:2625:2765:2802:2816:2875:2896:2946:2975:2976:3006:3046:30:137:183:209:220:232:237:321:410:475:517:627:685:696:715:744:748:751:752:863:972:973:1307:1313:1338:1393:1441:1447:1550:1585:1621:1634:1742:1803:1846:1847:1864:1894:1970:1975:1982:2024:2196:2302:2354:2364:2372:2377:2409:2449:2541:2551:2555:2622:2642:2710:2856:2870:2878:2993:2996:54:79:85:110:129:174:229:236:498:560:585:598:646:670:764:836:917:1017:1168:1183:1247:1304:1315:1330:1343:1404:1435:1438:1551:1566:1628:1644:1659:1679:1697:1704:1767:1838:1853:1944:1972:1978:1989:2000:2002:2101:2183:2420:2426:2503:2619:2644:2668:2676:2735:2761:2766:2772:2783:2795:2798:2820:2834:2841:2934:2999:19:33:36:48:56:103:242:255:306:336:382:387:391:452:457:578:619:655:682:709:727:728:884:916:925:1087:1098:1109:1159:1162:1243:1258:1284:1339:1340:1358:1432:1460:1478:1515:1549:1568:1617:1623:1703:1773:1790:1799:1837:1871:1889:1993:2058:2061:2132:2139:2164:2305:2351:2373:2447:2454:2560:2674:2675:2760:2775:2869:2912:3008:3013:27:58:414:463:481:491:493:534:698:711:730:767:779:892:967:985:987:1218:1337:1497:1650:1655:1663:1699:1770:1797:1953:2034:2038:2048:2049:2051:2069:2169:2190:2215:2244:2448:2475:2480:2509:2587:2597:2639:2647:2717:2744:2931:2942:3004:51:81:127:158:191:210:278:394:515:516:528:537:557:610:636:718:800:852:887:893:953:1024:1037:1126:1149:1172:1285:1312:1322:1485:1504:1540:1670:1719:1843:1852:1930:1957:2056:2063:2160:2175:2177:2222:2417:2430:2532:2534:2677:2719:2794:2829:2832:3023:9:66:91:105:115:178:253:258:263:322:342:413:433:522:532:594:777:860:871:889:894:977:1042:1121:1169:1189:1302:1352:1424:1436:1494:1501:1665:1778:1786:1825:1856:1919:1999:2030:2068:2092:2193:2275:2300:2369:2407:2440:2504:2556:2603:2709:2763:2836:2858:2899:2919:2947:18:74:247:404:484:549:755:1006:1038:1085:1100:1108:1115:1199:1265:1266:1271:1301:1379:1509:1552:1794:1795:1819:1828:1839:1995:2037:2115:2185:2270:2288:2328:2540:2565:2584:2624:2632:2652:2687:2729:2782:2796:2969:29:40:68:125:128:133:203:216:266:284:326:571:618:656:818:843:882:926:948:969:992:1013:1129:1197:1210:1274:1387:1735:1792:1859:1865:1882:1912:1958:1963:2010:2077:2081:2125:2140:2149:2199:2256:2265:2268:2463:2465:2780:2859:2904:3032:5:262:277:318:338:400:626:742:772:838:905:961:1251:1253:1483:1636:1777:1783:1806:1816:1823:1892:1968:2060:2089:2144:2152:2214:2229:2237:2350:2393:2552:2655:2679:2971:23:38:84:205:222:273:324:333:539:552:565:651:668:734:740:760:1052:1105:1203:1239:1417:1548:1600:1604:1631:1669:1701:1757:1833:1851:1983:2016:2043:2050:2087:2106:2142:2252:2336:2399:2589:2692:2698:3031:13:28:90:149:298:313:340:581:603:613:681:792:834:840:862:1002:1054:1516:1517:1899:1964:1967:1976:2003:2099:2121:2173:2192:2304:2438:2530:2620:2626:2638:2665:2805:2818:2822:2866:2893:2992:80:169:217:276:393:664:731:998:1142:1193:1202:1211:1292:1491:1662:1708:1760:1904:1937:1959:1986:2018:2046:2162:2206:2246:2434:2531:2697:2831:2833:3039:47:86:134:251:267:352:392:432:512:643:729:856:909:1093:1160:1177:1237:1276:1287:1471:1677:1820:1893:1980:2047:2091:2134:2155:2344:2496:2598:2649:2651:2680:2768:2842:2889:2910:3010:17:226:243:445:628:895:910:1020:1212:1267:1317:1323:1372:1446:1535:1596:1789:2067:2093:2262:2311:2366:2382:2400:2492:2627:2681:2707:2790:3012:6:53:144:168:198:633:780:859:1009:1185:1252:1422:1518:1649:1722:1801:1881:1909:1932:1933:1935:2001:2008:2057:2166:2238:2294:2383:2544:2808:2848:2849:2855:2883:2979:111:143:176:193:264:323:374:375:434:714:839:849:981:1069:1084:1187:1318:1357:1462:1489:1714:1741:1779:1895:1934:2086:2131:2179:2285:2421:2462:2469:2615:2733:2877:2901:2985:148:252:297:483:509:556:593:713:793:798:876:1028:1182:1684:1798:1949:1950:2032:2105:2124:2145:2290:2457:2460:2610:2797:2936:2982:10:388:403:478:540:582:675:811:835:850:923:1003:1157:1161:1188:1257:1291:1380:1673:1960:2107:2135:2148:2397:2410:2650:2929:97:135:430:976:1014:1072:1308:1361:1384:1896:1902:1939:2012:2119:2405:2461:2464:2669:2762:2774:2949:114:307:385:469:562:644:693:807:912:915:949:1174:1314:1453:1539:1813:1925:1962:2031:2100:2261:2512:2536:2605:2645:3019:12:124:126:162:429:583:765:830:1041:1059:1269:1346:1472:1498:1771:1966:2549:2754:3047:102:131:150:257:507:521:525:595:641:671:808:816:906:918:964:1008:1018:1026:1103:1259:1299:1440:1556:1609:1671:1748:1810:2153:2345:2432:2523:2640:2661:2672:2755:2860:3036:116:155:462:487:673:743:762:778:820:822:878:1120:1230:1391:1400:1537:1625:1818:1845:1858:1872:2054:2080:2235:2271:2273:2282:2330:2428:2471:2777:2803:2913:109:299:460:609:654:857:920:986:1070:1217:1249:1281:1344:1727:1754:1756:1911:2163:2176:2259:2274:2413:2585:2739:2792:2830:2847:2908:32:52:233:259:357:367:550:638:1242:1597:1866:1931:1948:2545:2723:2924:39:161:639:890:1219:1228:1231:1461:1764:1766:1841:1977:1988:1991:2006:2133:2224:2257:2299:2501:2559:2582:2654:2742:2864:2906:3016:3027:0:25:82:364:492:774:785:819:821:873:1095:1127:1145:1559:1718:1875:2233:2277:2338:2391:2516:2553:2617:2862:55:78:279:420:496:555:942:974:1156:1181:1238:1382:1467:1493:1554:1595:1643:1758:1897:2064:2422:2506:2586:2666:2824:2961:3042:285:360:384:620:940:943:975:1119:1475:1513:1526:1569:1765:2026:2211:2212:2295:2297:2301:2395:2521:2711:2784:2861:2907:2933:50:60:108:196:235:380:412:514:542:690:723:813:955:1116:1691:1743:2039:2052:2094:2096:2359:2367:2394:2546:2813:2843:2865:184:353:554:851:996:1360:1365:1627:1646:1696:1831:1916:1951:2098:2138:2547:2623:2738:2747:2812:2886:2932:201:221:331:343:350:378:459:486:559:642:702:750:809:999:1050:1066:1101:1538:1854:1955:2284:2488:2508:2785:2821:2991:3000:119:130:215:271:567:587:657:663:665:683:712:721:841:854:1398:1459:1582:1672:1724:1829:1905:1938:1946:2005:2227:2247:2477:2743:2749:2751:2959:26:117:153:245:401:436:442:446:479:501:667:773:781:826:913:937:962:1021:1128:1541:1768:2029:2095:2180:2209:2276:2494:2664:2695:2897:64:175:211:365:536:564:703:799:817:951:1004:1005:1154:1342:1425:1508:1553:2083:2150:2329:2361:2578:2885:2922:2953:2997:147:166:177:254:588:590:708:724:823:1035:1064:1123:1328:1420:2027:2053:2189:2298:2346:2564:2683:2745:2781:2917:118:283:316:337:344:506:519:612:896:990:1010:1012:1055:1408:1484:1855:2072:2082:2258:2358:2371:2376:2568:2726:2807:2972:163:165:238:309:497:529:1046:1057:1073:1082:1305:1560:1581:1682:1834:2171:2221:2234:2663:2968:3024:2:87:156:732:786:797:864:865:960:984:1277:1319:1533:1592:1614:1654:1923:2116:2353:2445:2583:2713:2773:2800:2874:2943:3011:349:606:753:875:886:935:1067:1140:1220:1268:1306:1310:1367:1371:1416:1502:1514:1555:1567:1772:1884:1922:2127:2334:2381:2753:2882:2955:180:325:427:473:553:574:611:745:842:1136:1297:1349:1576:1591:1710:1867:1956:2309:2312:2416:2577:2736:2828:2994:121:376:456:458:880:907:997:1216:1383:1389:1599:1694:1808:1918:1941:1971:2065:2146:2249:2980:151:185:199:212:383:499:622:699:776:1091:1325:1658:1947:2085:2104:2113:2414:2486:2614:2756:2819:2827:2930:2945:204:330:345:502:523:803:825:1263:1363:1376:1796:1850:1862:1900:2154:2241:2442:2444:2453:2667:2823:2825:2850:2863:2915:3034:3048:88:425:439:480:844:888:1353:1608:1720:1734:2017:2074:2122:2136:2188:2195:2213:2243:2269:2296:2308:2574:2706:2734:44:526:900:1011:1078:1298:1316:1481:1685:1917:1921:1936:1984:2198:2335:2404:2429:2561:2562:99:386:440:455:787:791:812:872:1022:1326:1373:1458:1594:1688:1873:1940:1998:2019:2040:2228:2594:2596:2769:2799:2857:3001:244:450:453:524:541:573:605:616:939:1113:1664:1693:1898:1943:2203:2231:2433:2499:2588:2633:2643:2653:482:697:858:869:941:1347:1443:1731:1877:1924:2035:2167:2349:2557:2606:2989:2998:275:510:676:716:978:1051:1079:2013:2036:2041:2075:2103:2172:2181:2272 6:3:2:0:5:4:1 5:4:0:9:2:6:3:8:7:1 2:1:0 1:0:2 [1:7] [1:12] [2011:2016] 27:0:26:23:13:12:29:5:24:4:25:14:22:20:7:10:6:9:19:2:11:1:16:30:28:15:18:17:8:3:21 3:0:2:1:4 4:0:3:1:2 1:0:2 [0:1] [0:1] [0:1] [0.05000000074505806:48.779998779296875] [0:366] [0:341] [0:256.42855834960938] [0:287.57144165039062] [0:311.39285278320312] [0:261.67855834960938] [1:53] [1:4] [1:31]
tree_sizes=3896 4300 4939 4820 5142 5149 5189 4561 5508 5174

Tree=0
num_leaves=31
num_cat=2
split_feature=20 20 20 18 20 20 20 20 17 18 20 20 20 5 20 20 20 5 18 0 5 5 18 5 5 18 0 18 18 5
split_gain=6.95457e+07 2.3532e+07 1.88434e+07 5.62969e+06 5.05729e+06 3.41221e+06 2.98143e+06 1.62804e+06 1.00922e+06 803509 801769 628192 536385 423097 419405 398125 375066 374553 338633 336202 288254 248398 239813 235373 233072 191170 170863 189771 170231 161268
threshold=10.910714626312258 40.125000000000007 2.9107142686843877 98.714286804199233 21.839285850524906 0.98214286565780651 5.9107141494750985 63.839284896850593 131.00000000000003 7.7857143878936776 15.803571224212648 29.303571701049808 1.7678571343421938 2.5000000000000004 0.41071428358554846 8.1250000000000018 4.3035714626312265 2.5000000000000004 142.42857360839847 0 2.5000000000000004 2.5000000000000004 23.071428298950199 2.5000000000000004 2.5000000000000004 3.6428570747375493 1 142.42857360839847 48.928571701049812 2.5000000000000004
decision_type=10 10 10 10 10 8 10 10 10 10 10 10 10 2 10 10 10 2 10 9 2 2 10 2 2 10 9 10 10 2
left_child=2 4 5 7 10 14 16 13 26 12 24 21 19 -3 -1 -8 -4 -9 -10 -7 -13 -6 -11 -12 -2 -21 27 -5 -15 -17
right_child=1 3 6 8 11 9 15 17 18 22 23 20 -14 28 -16 29 -18 -19 -20 25 -22 -23 -24 -25 -26 -27 -28 -29 -30 -31
leaf_value=0.29445474678199496 0.68734438519029784 1.8060687686124177 0.38187784296151595 3.0387052054425219 1.0541161539339843 1.0057710820132932 0.46920449090462901 2.6683312748610897 3.9267403685508198 0.56749422366493285 0.84752609529495349 1.3177908635557061 0.34838437248666687 1.2999383818750165 0.30739311385314938 0.57921495277206303 0.42061753853588002 2.0360367100446792 5.4707704030363757 0.32274789998255726 1.0641142577811311 0.86859494017334693 1.0588913464328606 0.7172611533941855 0.59386977922170392 0.40783918416453319 2.1269757027366181 4.2434485276594174 1.5613117978134827 0.51124992994042273
leaf_weight=42712249.925926208 210167.82169318199 22440.338528394699 3951107.0471076965 4520.9984350204468 56808.298853874207 4054.9448926448822 1539612.0633473396 7387.0881836414337 1640.9549875259399 45343.939859390259 109436.06952524185 35397.743302345276 7518593.4233050346 30265.572856664658 21032404.730576992 275376.24726891518 2182191.0594320297 18396.556594848633 1560.0235340595245 14684939.672246933 87439.458621025085 142260.75075531006 6371.2589056491852 271829.21701526642 524533.49435448647 150032.96102786064 1088.388512134552 879.08302903175354 26112.952071905136 684593.58339285851
leaf_count=15304992 75309 8041 1415792 1620 20356 1453 551686 2647 588 16248 39214 12684 2694122 10845 7536498 98675 781940 6592 559 5262024 31332 50976 2283 97404 187955 53761 390 315 9357 245309
internal_value=0 6.63965 -0.108637 20.4503 5.54188 -0.249776 1.29989 18.3142 43.51 0.0858749 4.53463 9.03377 0.0767679 16.0577 -0.367773 2.22044 0.924726 25.2119 58.0409 -0.0334853 10.8121 7.93641 4.02305 5.71127 3.92403 -0.0359769 36.3407 38.7095 14.5959 2.72586
internal_weight=0 1.55216e+06 9.47869e+07 114292 1.43787e+06 8.6154e+07 8.63288e+06 104603 9689.45 2.24093e+07 1.11597e+06 321906 2.23576e+07 78818.9 6.37447e+07 2.49958e+06 6.1333e+06 25783.6 3200.98 1.4839e+07 122837 199069 51715.2 381265 734701 1.4835e+07 6488.47 5400.08 56378.5 959970
internal_count=34520967 556184 33964783 40954 515230 30871381 3093402 37482 3472 8029891 399882 115348 8011360 28243 22841490 895670 2197732 9239 1147 5317238 44016 71332 18531 136618 263264 5315785 2325 1935 20202 343984
cat_boundaries=0 92 180
cat_threshold=0 0 0 0 0 0 0 0 0 0 0 0 0 0 0 0 0 0 0 0 0 0 0 0 0 0 0 0 0 0 0 0 0 0 0 0 0 0 0 0 0 0 0 0 0 0 0 0 0 0 0 0 0 0 0 0 0 0 0 0 0 0 0 0 0 0 0 0 0 0 0 0 1025 0 0 0 0 4096 0 16384 0 0 0 0 0 0 134217728 201326592 0 0 0 33554496 0 0 0 0 0 0 0 0 0 0 0 0 0 0 0 0 0 0 0 0 0 0 0 0 0 0 0 0 0 0 0 0 0 0 0 0 0 0 0 0 0 0 0 0 0 0 0 0 0 0 0 0 0 0 0 0 0 0 0 0 0 0 0 0 0 0 0 0 0 0 0 0 1024 256 0 0 0 0 512 0 0 0 0 0 0 0 0 67108864
shrinkage=1


Tree=1
num_leaves=31
num_cat=4
split_feature=20 20 18 18 18 16 20 20 18 20 20 18 0 20 18 20 5 16 16 0 16 19 18 20 20 0 5 21 18 2
split_gain=3.98121e+07 6.09013e+06 4.44495e+06 3.51846e+06 1.23876e+06 1.21777e+06 766181 554919 419667 350073 240264 227206 223021 177610 152623 220159 130172 125162 124918 110406 105775 101820 101363 95574.3 91184.2 80668.1 80451.4 76510 65171.1 60223.9
threshold=4.6250000000000009 1.303571403026581 10.642857074737551 98.714286804199233 2.7857142686843877 19.500000000000004 0.51785713434219371 7.0535714626312265 9.9285712242126483 2.0892857313156132 13.517857074737551 142.42857360839847 0 3.3750000000000004 18.214285850524906 63.839284896850593 2.5000000000000004 16.500000000000004 8.5000000000000018 1 34.500000000000007 1.214285731315613 0.5000000149011613 0.23214285820722583 0.87500000000000011 2 2.5000000000000004 33.053571701049812 5.2142856121063241 3
decision_type=10 8 10 10 10 8 10 10 10 10 10 10 9 8 10 10 2 8 10 9 10 10 8 10 10 9 2 10 10 1
left_child=1 6 7 5 9 10 23 16 13 12 -4 -5 17 28 -7 20 -2 -3 -9 29 -16 -22 -14 27 -8 -10 -15 -1 -6 -19
right_child=2 4 3 11 8 14 24 18 25 -11 -12 -13 22 26 15 -17 -18 19 -20 -21 21 -23 -24 -25 -26 -27 -28 -29 -30 -31
leaf_value=-0.033259242539495845 0.11904704619912418 0.10151632286065887 0.18246374224641934 0.11685434966406864 0.033830073121111054 0.25989600097873916 -0.017925373437687596 0.13140918193026116 0.40550510712915799 0.027275072346755299 0.24367194658847452 0.00014765413227334741 -0.020363132104249896 0.083336489443455994 0.31465266533856656 0.24762478291224482 0.083199896221085215 1.7706980586473378 0.17184949806089861 0.37274171831924818 0.576010398025249 0.35979605225298483 0.0041448432753686216 -0.026108109821749919 -0.0081342497697503829 0.19852780724427266 0.054287548444217092 0.89683772043740961 0.085520745555858632 0.69845859785073294
leaf_weight=30526955.35734272 798456.45846939087 9768.3964462280273 718977.41879940033 133375.87567281723 3007413.1692562103 250109.62526154518 12618215.940513611 1143792.4072360992 13538.888543128967 4417637.8749544621 723999.03122353554 316481.25443792343 1055061.7733545303 751260.16724991798 461722.02013468742 173862.65509128571 1989867.0869693756 521.43043613433838 688148.98503899574 5735.8360919952393 12610.457816362381 430530.83013558388 9466543.4113941193 16138689.15077877 9288902.0353388786 49111.893420696259 1874127.1687576771 497.39798736572266 143757.93313360214 777.41419887542725
leaf_count=11292687 255793 3080 203819 2608 1042495 64102 4607790 335128 3253 1533894 167548 936 378571 252434 91530 9000 637481 115 199699 1510 2724 61257 3381198 5945006 3354753 13989 629703 184 48519 161
internal_value=0 -0.19417 2.15579 3.05739 0.279871 3.4784 -0.337926 1.52711 0.670481 0.127368 2.84232 0.463326 0.0283125 0.642561 4.16911 4.33229 1.2462 3.66747 1.95467 6.88574 4.53032 4.87932 0.0224971 -0.41035 -0.183651 3.2447 0.834666 -0.443254 0.48251 15.1901
internal_weight=0 8.93685e+07 7.84193e+06 3.22167e+06 2.07953e+07 2.77181e+06 6.85733e+07 4.62026e+06 5.83921e+06 1.4956e+07 1.44298e+06 449857 1.05384e+07 5.77656e+06 1.32884e+06 1.07873e+06 2.78832e+06 16803.1 1.83194e+06 7034.68 904863 443141 1.05216e+07 4.66661e+07 2.19071e+07 62650.8 2.62539e+06 3.05275e+07 3.15117e+06 1298.84
internal_count=34520967 32489342 2031625 603524 7288922 599980 25200420 1428101 1990393 5298529 371367 3544 3764635 1973151 228613 164511 893274 4866 534827 1786 155511 63981 3759769 17237877 7962543 17242 882137 11292871 1091014 276
cat_boundaries=0 93 173 266 267
cat_threshold=0 0 0 0 0 0 0 0 0 0 0 0 0 0 0 0 0 0 0 0 0 0 0 0 0 0 0 0 0 0 0 0 0 0 0 0 0 0 0 0 0 0 0 0 0 0 0 0 0 0 0 0 0 0 0 0 0 0 0 0 0 0 0 0 0 0 0 0 1024 0 32768 0 525313 0 64 67108864 67371008 4096 8455168 33570816 67108864 512 0 4096 0 32 134217728 201326592 0 0 0 33554496 4 0 0 0 0 0 0 0 0 0 0 0 0 0 0 0 0 0 0 0 0 0 0 0 0 0 0 0 0 0 0 0 0 0 0 0 0 0 0 0 0 0 0 0 0 0 0 0 0 0 0 0 0 0 0 0 0 0 0 0 0 0 0 0 0 0 0 0 0 0 0 0 0 1024 0 64 0 0 0 0 16384 0 0 0 0 0 0 0 0 0 0 0 0 0 0 0 0 0 0 0 0 0 0 0 0 0 0 0 268435456 0 16384 0 4194304 0 0 0 0 0 0 0 0 0 0 0 0 0 0 0 0 0 0 0 0 0 0 0 4096 0 0 0 0 134217728 0 0 0 0 2 0 0 0 524288 0 0 0 256 64 67108864 262144 4096 1024 33554944 67108864 768 80 8392704 0 32 134225920 201326592 32768 0 33554432 33554496 262144 549
shrinkage=0.075


Tree=2
num_leaves=31
num_cat=6
split_feature=20 20 20 18 18 18 20 20 18 20 18 0 5 20 24 5 24 0 20 20 18 5 20 0 15 0 0 24 20 4
split_gain=3.20402e+07 4.47659e+06 3.65935e+06 1.66593e+06 783026 714876 563865 399794 327691 237479 170260 163532 120929 108738 91547.4 83671.2 80472.6 69626.9 69202 68228.9 62905.4 61090.6 60791.1 57674.7 63903.2 86923.2 56150.9 51345.2 50761.9 48924.7
threshold=3.7678571939468388 1.1250000000000002 9.0535712242126483 98.714286804199233 2.3571429252624516 16.071428298950199 0.44642856717109686 5.6250000000000009 6.9285714626312265 1.6964285969734194 142.42857360839847 0 2.5000000000000004 2.6607142686843877 15.500000000000002 2.5000000000000004 15.500000000000002 1 0.73214286565780651 0.19642857462167743 0.35714286565780645 2.5000000000000004 12.375000000000002 2 1.2549999952316286 3 4 23.500000000000004 2.3750000000000004 5
decision_type=10 8 10 10 10 10 10 10 10 10 10 9 2 8 2 2 2 9 10 10 8 2 10 9 2 9 9 2 10 1
left_child=1 6 7 5 9 16 19 15 13 11 -5 -3 -9 -6 -7 -2 22 -16 -8 23 -13 -15 -4 24 -1 27 -10 -26 -11 -29
right_child=2 4 3 10 8 14 18 12 26 28 -12 20 -14 21 17 -17 -18 -19 -20 -21 -22 -23 -24 -25 25 -27 -28 29 -30 -31
leaf_value=0.027617514349776218 0.083358255046859508 0.18862362550929199 0.15101251882282032 0.098553329877283505 0.021637896301019206 0.22937899594623512 -0.020277925305791953 0.1264928392716102 0.25564608030437624 0.011406999979185045 0.00088604202125821456 -0.022458428926832089 0.093049511941168075 0.056709428806453091 0.22162047582047656 0.058129120229335994 0.13684822403763747 0.18388106832477258 -0.011766227924737156 -0.027130219986672217 -0.0018041439109415718 0.034671830299603801 0.187683094521576 -0.033505884281679013 0.73014105537500684 0.082085657248097466 0.12654302074659546 3.9874561472762253 0.026965272171499948 1.1701682159595566
leaf_weight=8176.236634016037 1045116.2371032238 24929.41366481781 600993.77567839622 149273.96069383621 3081499.1723041534 1051277.9776616096 11364839.044112206 861585.43543815613 22554.434886455536 4114972.9385297298 306652.72137641907 911557.31370687485 2067886.7429676056 994167.77531123161 455188.11600875854 2527993.2225515842 1013989.3709812164 698140.37882137299 10190712.253504753 15045084.458586693 9208555.2477946281 2454439.4074249268 440800.61343288422 26935923.424503088 1140.7598929405212 1744.0854194164276 119308.04432344437 54.911235094070435 1653648.1120054722 94.133545875549316
leaf_count=3110 314154 5921 143892 2602 1056921 137268 4235104 229455 4193 1433514 915 333787 570847 323910 51409 782832 228372 102978 3749056 5710569 3312351 806856 89296 10301137 292 667 31667 21 557835 36
internal_value=0 -0.212282 1.58435 2.25496 0.170121 2.44938 -0.348193 1.09796 0.457682 0.0495583 0.438175 -0.0425581 1.37181 0.425018 2.84495 0.873447 2.02519 2.65039 -0.216719 -0.415682 -0.0488607 0.546998 2.22038 -0.445801 1.82102 5.74208 1.96128 11.9251 0.21156 29.4679
internal_weight=0 8.61334e+07 1.12189e+07 4.71632e+06 2.25856e+07 4.26039e+06 6.35478e+07 6.50258e+06 6.67197e+06 1.59137e+07 455927 1.0145e+07 2.92947e+06 6.53011e+06 2.20461e+06 3.57311e+06 2.05578e+06 1.15333e+06 2.15556e+07 4.19922e+07 1.01201e+07 3.44861e+06 1.04179e+06 2.69471e+07 11210.1 3033.89 141862 1289.8 5.76862e+06 149.045
internal_count=34520967 31866947 2654020 756732 7866955 753215 23999992 1897288 2223547 5643408 3517 3652059 800302 2187687 291655 1096986 461560 154387 7984160 16015832 3646138 1130766 233188 10305263 4126 1016 35860 349 1991349 57
cat_boundaries=0 94 189 282 374 469 470
cat_threshold=0 0 0 0 0 0 0 0 0 0 0 0 0 0 0 0 0 0 0 0 0 0 0 0 0 0 0 268435456 0 0 0 0 0 0 0 0 0 0 0 0 0 0 0 0 0 0 0 0 0 0 0 0 0 0 0 0 0 0 0 0 0 0 0 0 0 4194304 0 0 1024 16777216 32768 0 525312 0 0 67108864 67371008 4096 8455680 33570816 67108864 512 0 4096 134217728 32 134217728 201326592 0 0 0 37748800 537001988 1073741824 0 0 0 0 33554432 0 0 4 0 0 33554432 0 0 0 0 0 0 0 0 0 0 64 0 0 0 0 0 0 0 0 2048 0 0 32800 0 0 0 0 0 0 0 0 0 0 0 0 0 0 0 0 1073741824 0 0 0 0 0 0 0 0 0 0 0 0 0 0 2 0 0 0 0 32768 2162688 1024 0 0 67108864 262144 4096 66048 0 64 512 0 0 134217728 268435456 134225920 134217728 0 2048 33554432 33554496 262144 16384 2097152 0 0 0 4 0 0 0 0 0 0 0 0 0 0 0 0 0 0 0 0 0 0 0 0 0 0 0 0 0 0 0 1024 0 0 0 0 0 0 0 0 0 0 0 0 0 0 0 0 65536 4096 0 0 0 0 4194304 0 0 0 0 0 0 0 0 0 0 0 0 0 0 16777216 0 0 1024 16777216 0 67108864 67108864 0 65536 0 0 0 0 131072 0 0 0 0 0 0 33554432 33587200 131072 0 0 0 0 0 0 0 0 0 0 0 0 0 0 0 0 0 0 0 0 0 0 0 0 0 0 0 0 0 0 0 0 0 0 0 0 0 0 0 0 0 0 0 0 0 0 0 0 0 0 0 0 0 0 0 0 0 0 0 0 0 0 0 0 0 0 0 0 0 0 0 0 1024 0 0 67108864 0 0 0 0 0 0 0 0 0 0 0 0 0 0 0 33554432 0 0 0 0 0 0 0 0 0 0 0 0 0 0 0 0 0 0 128 0 0 0 0 0 0 0 0 268435456 8192 16384 8192 4194304 0 0 0 0 0 0 0 0 0 0 0 0 0 0 0 0 0 0 0 0 0 0 1024 0 0 0 0 0 0 0 0 0 0 0 0 0 1024 0 0 0 524352 256 0 0 0 4128 8390144 33554944 67108864 512 0 4096 0 32 134217728 201326592 32768 0 33554432 33554496 262144 0 8192 1
shrinkage=0.075


Tree=3
num_leaves=31
num_cat=5
split_feature=18 18 18 18 16 18 18 18 0 18 0 17 18 17 17 5 5 16 18 0 18 17 18 8 5 18 0 17 16 17
split_gain=2.67132e+07 3.54528e+06 2.87066e+06 1.04499e+06 576963 504604 432993 262547 193400 165340 143844 83597.5 82148 80977.3 78531.3 68302.8 63697.1 63284.2 61518 57141.6 50472.3 47630.7 44346.6 41812 39641.4 36655.8 33937.5 31274.9 30283 29925.3
threshold=3.5000000000000004 1.0714285969734194 7.9285714626312265 142.42857360839847 14.500000000000002 2.0714285373687749 0.35714286565780645 5.2142856121063241 0 98.714286804199233 1 3.5000000000000004 14.928571224212648 2.5000000000000004 10.500000000000002 2.5000000000000004 2.5000000000000004 13.500000000000002 0.6428571641445161 2 1.0000000180025095e-35 131.00000000000003 1.5000000000000002 3 2.5000000000000004 1.0714285969734194 4 7.5000000000000009 25.500000000000004 5.5000000000000009
decision_type=10 8 10 8 10 10 8 10 9 10 9 10 10 10 10 2 2 10 10 9 8 10 10 1 2 10 9 8 10 10
left_child=1 6 7 4 14 10 8 16 -1 12 25 24 -6 17 -4 -9 -2 22 -8 -10 -21 -11 26 -14 -7 -3 -12 -17 -25 -18
right_child=2 5 3 -5 9 11 18 15 19 21 13 -13 23 -15 -16 27 29 -19 -20 20 -22 -23 -24 28 -26 -27 -28 -29 -30 -31
leaf_value=0.08353957329156507 0.065929813775922524 0.21871784350378382 0.1042006281982655 0.00066320666342845546 0.14160329468017058 0.031127939001255007 -0.021087590443067659 0.097507012784328662 0.032771636754712986 0.1234366891357937 0.096097324545985421 0.037962234342262688 -0.036831142521833449 0.012623110029133574 0.12939497409640316 0.067607687160637614 0.041303055970360068 0.2920040457505948 -0.013242206781144232 -0.032765465491547068 -0.027273161322264889 0.041600367773970588 0.0037034205662959895 0.16020572974656791 0.016671518501738331 0.074268407895421162 -0.0061135229335500503 0.087728990914173077 0.17751021001515044 0.059396089268218363
leaf_weight=83886.529782772064 1218887.4673695564 19123.964003562927 1656073.0263228416 320641.08515357971 689902.97830367088 1434697.0360655785 11269481.991067171 927083.27640771866 80234.965104103088 89263.507259368896 18312.262003660202 2087754.9024348259 5443.8905048370361 2669486.3594968319 1200328.0482873917 1567677.2401223183 2222900.9226763248 4119.7548031806946 11218928.005802631 23693721.598575354 15613822.610360384 72496.025024414062 4587428.552072525 885855.85641598701 4162741.1489958763 20447.452404499054 6784813.3769497871 601135.90862178802 1589760.6598849297 668950.51571369171
leaf_count=23602 349169 3107 366183 966 136258 478542 4306441 232323 26686 1983 6086 656944 604 924303 217251 428327 677679 1368 4188795 9310358 6080236 572 1632232 124126 1392292 5943 2474560 150305 135057 188669
internal_value=0 -0.217723 1.28777 1.76911 1.8603 0.129232 -0.339734 0.852969 -0.402833 2.14297 0.0168961 0.335388 2.19328 0.0115385 1.53051 1.07291 0.687327 -0.0251887 -0.228983 -0.406063 -0.407784 1.1568 -0.026606 2.27815 0.271692 1.92055 -0.0778435 0.975797 2.28423 0.606512
internal_weight=0 8.3749e+07 1.37164e+07 6.50977e+06 6.18912e+06 2.17889e+07 6.19601e+07 7.20664e+06 3.94717e+07 3.33272e+06 1.41037e+07 7.68519e+06 3.17096e+06 1.40642e+07 2.8564e+06 3.0959e+06 4.11074e+06 1.13947e+07 2.24884e+07 3.93878e+07 3.93075e+07 161760 1.13906e+07 2.48106e+06 5.59744e+06 39571.4 6.80313e+06 2.16881e+06 2.47562e+06 2.89185e+06
internal_count=34520967 31511495 3009472 983000 982034 7575377 23936118 2026472 15440882 398600 5047599 2527778 396045 5038549 583434 810955 1215517 4114246 8495236 15417280 15390594 2555 4112878 259787 1870834 9050 2480646 578632 259183 866348
cat_boundaries=0 95 190 285 286 380
cat_threshold=0 0 0 0 0 0 0 0 0 0 0 0 0 0 0 0 0 0 128 0 2147483648 0 0 0 0 0 0 268435456 2 0 0 272630784 0 73728 0 0 0 0 0 0 0 0 0 0 0 0 0 0 0 0 0 0 0 0 4194304 0 0 0 0 0 0 0 0 0 0 0 0 0 0 16777216 0 4194304 536871936 0 0 67108864 67108864 4096 66560 0 0 256 0 1073741824 0 12 134742016 1048576 0 0 0 4202497 537001984 0 16777216 0 0 0 0 0 0 0 0 0 0 0 0 0 0 0 0 0 0 0 0 2147483648 0 0 0 0 0 0 0 0 0 0 0 0 0 0 0 0 0 0 0 0 0 0 0 0 0 0 0 0 0 0 0 0 0 0 0 0 0 4194304 0 0 0 0 0 0 0 0 0 1024 0 32768 0 525313 256 0 67108864 67371008 4096 8389120 33570816 67108864 0 0 4608 134217728 32 134742016 201326592 0 0 0 37748800 537001988 0 2097152 0 0 0 0 0 0 0 0 0 0 0 0 0 0 0 0 0 0 0 0 131072 0 0 0 0 0 1048584 0 8192 0 16785424 0 0 0 0 0 0 0 0 0 0 0 0 0 0 0 0 0 65536 4096 524288 0 0 0 0 0 0 0 0 0 0 0 0 0 1 4194304 0 0 0 0 0 0 524288 16777216 0 0 1048576 0 0 16384 0 33554432 12288 4325376 0 0 0 0 32768 0 100663328 33554496 4 1073741824 538968064 4 0 0 0 0 0 0 0 0 0 0 524288 1024 0 0 0 0 0 0 0 0 0 0 0 0 0 0 0 0 8192 0 0 4194304 0 0 0 0 0 0 0 0 0 0 0 0 0 0 0 0 8 0 0 0 0 0 0 4096 0 0 0 0 134219776 0 0 0 0 4194304 0 536870912 0 16777216 0 541065216 0 0 64 0 33554432 0 66560 0 0 2097664 64 71319560 0 1081356 8192 0 0 2048 4096 0 0 512
shrinkage=0.075


Tree=4
num_leaves=31
num_cat=5
split_feature=18 18 18 18 21 21 18 21 0 0 18 21 18 18 21 21 18 18 21 21 0 17 21 17 21 17 0 18 19 0
split_gain=2.28876e+07 3.01185e+06 2.31736e+06 692614 613538 491408 406786 287817 173126 124896 117365 106753 97380.5 94872.2 73177.2 67538.9 63762.1 58514 51126.4 45627.9 43781.7 33386.7 30750.2 39878.8 27373.7 27261.2 27088.9 27269.2 27042.5 26696
threshold=3.2142857313156132 0.92857143282890331 7.357142686843873 142.42857360839847 1.9464285969734194 0.55357143282890331 12.928571224212648 4.8392858505249032 0 1 1.6428571343421938 3.1250000000000004 98.714286804199233 0.21428572386503222 9.1250000000000018 1.1964285969734194 4.5000000000000009 20.785714149475101 1.0892856717109682 7.0535714626312265 2 131.00000000000003 11.089285373687746 1.0000000180025095e-35 3.2321428060531621 17.500000000000004 3 1.0000000180025095e-35 0.5000000149011613 4
decision_type=10 8 10 10 10 10 8 10 9 9 10 10 10 10 10 10 10 10 8 10 9 8 10 10 8 8 9 10 8 9
left_child=1 5 7 6 9 13 14 16 22 -3 18 -6 17 29 -4 -10 24 25 -11 -9 -20 -14 -7 -24 -2 -8 -17 -28 -19 -1
right_child=2 4 3 -5 11 8 12 19 15 10 -12 -13 21 -15 -16 26 -18 28 20 -21 -22 -23 23 -25 -26 -27 27 -29 -30 -31
leaf_value=0.04542596445274312 0.029959084387051912 0.13962037325891641 0.084779009269722871 0.00024450517613475045 0.018361841659378278 0.050779864287260841 0.11430888668716063 0.064962338469023287 -0.017687222886319052 -0.011596405111245508 0.0065516589594897473 0.038707486688656638 0.10283246254159017 -0.025284041832536987 0.10752508209304497 0.041837437226732777 0.053137202127171657 0.18946946530974693 0.11128143319438984 0.084471489043844966 -0.0019302353949539751 0.038003000413090855 0.26447683694308616 0.092144051790589154 0.043659779875138638 0.13367394970956964 -0.017392151199773716 -0.0025221593193523587 0.1378960842905172 -0.032737808532662074
leaf_weight=24593.801992416382 1802849.6350049973 34922.626204013824 1918968.9256584644 312398.61514663696 4890699.6734602451 58135.664716243744 1146307.4685049057 1951236.3070118427 10804432.666566372 5855326.6645054817 5596819.4110834599 2062360.6400971413 106811.84662103653 15108869.766222954 1359021.728320837 66055.757026433945 2007221.3089001179 58621.516042232513 19271.972213745117 1030459.6233785152 5497968.830299139 76822.054902076721 10174.304208278656 29318.733187198639 1505136.0903046131 635677.68621397018 959715.39816689491 2502736.152431488 2342524.9994330406 27754089.965985537
leaf_count=9513 551928 6962 409443 945 1622814 17964 177434 493971 4181333 2194216 1940229 629232 2072 5975020 242940 20777 543905 6469 5816 232102 1986642 615 2232 5400 432132 80906 363924 924667 179787 11279577
internal_value=0 -0.222731 1.07716 1.46273 0.0750274 -0.347185 1.52237 0.707389 -0.187561 -0.0273042 -0.0311926 0.325288 1.72223 -0.400895 1.25612 -0.196601 0.567889 1.75351 -0.089534 0.956061 -0.0204611 1.00949 1.13952 1.82055 0.482572 1.61623 -0.076481 -0.0885837 1.8554 -0.435581
internal_weight=0 8.12755e+07 1.62541e+07 7.95715e+06 2.39574e+07 5.73181e+07 7.64476e+06 8.2969e+06 1.44306e+07 1.70043e+07 1.69694e+07 6.95306e+06 4.36677e+06 4.28876e+07 3.27799e+06 1.43329e+07 5.31521e+06 4.18313e+06 1.13726e+07 2.9817e+06 5.51724e+06 183634 97628.7 39493 3.30799e+06 1.78199e+06 3.52851e+06 3.46245e+06 2.40115e+06 2.77787e+07
internal_count=34520967 31166318 3354649 1100611 8385911 22780407 1099666 2254038 5516297 6133865 6126903 2252046 447283 17264110 652383 5490701 1527965 444596 4186674 726073 1992458 2687 25596 7632 984060 258340 1309368 1288591 186256 11289090
cat_boundaries=0 95 190 284 379 474
cat_threshold=0 0 0 0 0 0 0 0 0 0 0 0 0 0 0 0 0 0 128 0 2147483648 0 0 0 0 0 0 268435456 2 0 0 4195328 0 0 0 0 0 0 0 0 0 0 0 0 0 0 0 0 0 0 0 0 0 0 0 0 0 0 0 0 2048 0 0 0 0 0 0 0 0 16777216 0 4194304 1024 0 0 67108864 67108864 4096 66560 0 0 256 4096 1073741824 134217728 12 134742016 1048576 0 0 100663296 37748736 537001988 0 16777216 0 0 0 0 0 0 0 0 0 0 0 0 0 0 0 0 0 0 0 0 0 0 0 0 0 0 0 0 0 0 0 0 0 0 0 0 0 0 0 0 0 0 0 0 0 0 0 0 8 0 0 0 0 0 0 0 0 0 4194304 0 0 0 0 0 0 4194304 0 0 1024 0 32768 0 525312 0 0 0 67371008 4096 8455680 33570816 67108864 0 0 4608 134217728 36 134217728 201326592 0 2048 0 4194368 536870916 512 2097152 0 0 0 0 0 0 0 0 16 0 528384 1024 0 0 0 0 0 0 0 0 0 0 0 0 0 0 0 0 0 0 0 4194304 0 0 0 0 0 0 0 0 0 0 0 0 0 0 0 0 0 0 0 0 0 0 0 0 0 0 0 0 134217728 0 0 0 524288 0 0 0 0 16777216 0 541065216 1 256 64 67108864 33556480 0 0 0 0 2097920 64 71319560 512 32768 532480 1048576 0 0 33554432 0 0 1073741828 0 0 0 0 0 0 0 0 0 0 0 1024 0 0 0 0 0 0 0 0 131072 64 536870912 0 0 0 1048584 0 8192 0 8192 268437504 0 8192 4 0 0 0 0 0 0 0 0 0 0 0 0 0 0 4096 524288 0 2147483648 0 4194304 0 0 0 0 0 0 0 0 0 0 4194304 0 536870912 0 0 0 0 536870976 256 0 0 0 0 0 16384 0 33554432 0 4194304 1024 0 0 0 0 0 0 8257 0 1073741824 541196288 0 0 0 0 0 0 0 0 0 0 0 0 0 0 0 0 0 0 0 0 0 0 0 0 0 0 0 268435456 8194 0 8208 268436480 32 1122304 0 0 0 0 0 0 0 0 0 0 0 0 0 0 65536 4096 0 0 0 0 4194304 0 0 0 0 0 0 0 0 0 1 0 0 0 0 0 0 0 524288 0 0 0 67108864 0 8388608 32768 67108864 0 0 8519680 0 32 8192 0 32768 2048 0 4194304 537001984 0 18874368
shrinkage=0.075


Tree=5
num_leaves=31
num_cat=5
split_feature=20 20 20 19 16 20 16 20 20 0 5 16 20 0 5 16 19 0 20 20 19 21 20 0 20 21 19 14 0 19
split_gain=2.01599e+07 2.52783e+06 2.22548e+06 407402 364755 327757 321890 277152 220337 75736.7 65684 64963.4 60949.4 85018.8 59763.6 52388.6 54827.6 45472 43640.7 43470.5 42628.7 38020.3 37957.2 34980.9 29521.5 25676.4 25674.3 24833.9 27378.3 24587.5
threshold=2.6250000000000004 0.80357143282890331 6.6250000000000009 110.2857131958008 11.500000000000002 1.553571403026581 8.5000000000000018 0.33928571641445165 4.0178570747375497 0 2.5000000000000004 6.5000000000000009 63.839284896850593 1 2.5000000000000004 2.5000000000000004 1.0000000180025095e-35 2 1.1250000000000002 10.017857074737551 1.0000000180025095e-35 14.017857074737551 0.12500000372529033 3 0.55357143282890331 6.1964285373687753 0.35714286565780645 1.0000000180025095e-35 4 160.64286041259768
decision_type=10 8 8 8 8 10 10 10 8 9 2 10 8 9 2 10 10 9 10 10 10 8 10 9 10 10 10 2 9 10
left_child=1 7 8 4 19 6 9 17 14 -3 -7 -10 13 -6 -2 18 -17 25 23 -4 -8 -15 -19 -11 -9 -1 -13 -23 -29 -5
right_child=2 5 3 29 12 10 20 24 11 15 -12 26 -14 21 -16 16 -18 22 -20 -21 -22 27 -24 -25 -26 -27 -28 28 -30 -31
leaf_value=0.023772475080259547 0.044539600953659227 0.095687668683562752 0.07196229499406645 0.038687262801111059 0.12357607956098673 0.022264857191531352 0.1199077620379404 -0.022908667317774224 0.048664332455307525 0.083473175693175597 0.0083642747162175745 0.11914056743823243 0.083603383073337298 0.094868027017816409 0.027701715527076214 0.031218480651924903 -0.0008449957617075722 -0.033849864941267155 -0.0029247830732162931 0.088027689061998746 0.014160954841835081 0.10502331288252555 -0.028671539287589125 -0.011594831511299268 -0.016842693392544281 0.19146534497869777 0.065534194540484036 0.15694940313613834 0.11529378064696173 0.00096793716496518993
leaf_weight=29206.466174602509 1681867.6470403671 40964.375065326691 2318986.5564427376 175939.57602930069 1918545.3910188675 2686460.1300947666 129416.1513915062 9833762.2764854431 3455476.7863483429 21815.736963272095 6633885.0815372467 52079.745069265366 489707.2697467804 1488252.7885987759 4019473.5095114708 358486.6227824688 1838282.7837779522 19603057.141268969 5686835.9512374401 1601810.682322979 25701.826096057892 880959.06864452362 13408481.712969542 8757352.4580788612 8340662.111947298 6231.8463325500488 1435181.2733125687 122583.2183880806 323965.92814087868 217236.36138916016
leaf_count=9721 480398 9188 463655 1766 156904 894315 23470 3964843 864751 5625 2224217 10869 10066 228143 1195662 116275 669196 8262285 2069233 234711 8832 89610 5561988 3312655 3268697 1289 337694 11028 33230 651
internal_value=0 -0.238324 0.88389 1.23469 1.27754 0.0144599 -0.0687356 -0.367522 0.569547 -0.0820513 0.164946 0.72407 1.45056 1.4853 0.435584 -0.0853903 0.0584984 -0.422072 -0.107241 1.04701 1.36515 1.37465 -0.423287 -0.151447 -0.268331 0.709957 0.898818 1.49769 1.6898 0.237956
internal_weight=0 7.74006e+07 2.01821e+07 9.53799e+06 9.14481e+06 2.61792e+07 1.68589e+07 5.12214e+07 1.06441e+07 1.67037e+07 9.32035e+06 4.94274e+06 5.22401e+06 4.73431e+06 5.70134e+06 1.66628e+07 2.19677e+06 3.3047e+07 1.4466e+07 3.9208e+06 155118 2.81576e+06 3.30115e+07 8.77917e+06 1.81744e+07 35438.3 1.48726e+06 1.32751e+06 446549 393176
internal_count=34520967 30401829 4119138 1229764 1227347 9333006 6214474 21068823 2889374 6182172 3118532 1213314 528981 518915 1676060 6172984 785471 13835283 5387513 698366 32302 362011 13824273 3318280 7233540 11010 348563 133868 44258 2417
cat_boundaries=0 94 190 285 379 474
cat_threshold=0 0 0 0 0 0 0 0 0 0 0 0 0 0 0 0 0 0 128 0 0 0 0 0 0 0 0 268435456 8192 0 8208 4195328 0 0 0 0 0 0 0 0 0 0 0 0 0 0 0 0 8 0 0 0 0 0 0 0 0 0 0 0 134217728 0 0 0 0 0 0 0 1024 16777216 0 0 525312 0 0 67108864 67371008 0 66560 16384 67108864 0 0 4096 134217728 12 0 201326592 32768 0 0 4194304 537001988 512 0 0 0 0 0 0 0 0 0 0 0 0 0 0 0 0 0 0 0 0 0 0 0 0 0 0 0 0 0 0 0 0 0 0 0 0 0 0 0 0 0 0 0 0 0 0 0 0 0 0 1073741824 0 0 65536 0 0 0 0 0 0 0 0 0 0 0 0 0 0 0 0 32768 0 1024 256 1024 67108864 262144 4096 1536 49152 67108864 17152 0 8388608 0 8 134225920 201326592 34816 2048 33554432 33554496 4 0 2097152 256 0 0 0 4 0 0 0 0 0 0 0 0 0 0 0 0 0 0 0 0 0 0 0 0 67108864 0 1048576 0 0 0 0 1024 0 0 0 0 0 0 0 0 0 0 0 0 0 0 0 0 65536 4096 0 0 0 0 4194304 0 0 0 0 0 134217728 0 0 0 0 0 0 0 0 16777216 0 4194304 2622464 16777216 0 67108864 67371008 0 65536 0 0 512 8192 131072 0 0 0 1048576 32768 0 33554432 37781504 131076 1073741824 4 0 0 0 0 0 0 0 0 0 0 0 1024 0 0 0 0 0 0 0 0 2147483680 0 0 0 0 0 0 0 0 0 0 268435456 0 0 0 0 0 0 0 0 0 0 0 0 0 0 0 0 0 0 0 0 0 0 0 0 0 0 4194304 0 0 0 0 0 0 4194304 0 0 0 0 32768 4194304 1 256 64 0 1048576 4096 512 33554944 0 2097920 8192 4211200 0 1048608 134742016 1048576 0 2048 4096 64 0 1073741824 0 0 0 0 0 0 0 0 1073741824 0 0 0 0 0 0 0 0 0 0 0 0 0 0 0 0 0 0 0 0 0 0 0 0 0 0 0 0 0 0 0 0 0 0 0 0 0 0 0 0 0 65536 16384 0 0 256 4112 0 128 4194304 0 2048 0 0 0 0 2151677952 0 256 2114560 16842752 0 4194304 0 4194304 0 0 67108864 0 0 33554432 0 0 4096 1077936128 0 4 524288 1048576 0 0 0 4194304 536870912 0 553648132
shrinkage=0.075


Tree=6
num_leaves=31
num_cat=5
split_feature=18 18 18 18 19 19 16 19 18 0 0 18 19 19 18 19 0 18 16 5 5 5 0 5 19 19 0 19 5 17
split_gain=1.76264e+07 2.14353e+06 1.81655e+06 385209 348738 314135 281086 199912 109108 103665 93845.9 83930.2 63744.4 57258.8 56454.7 49339.3 49138.9 43910.9 41035.7 38463.4 35007.3 32756.6 31786.9 30889.8 29789.1 25102.2 24898.1 24858.1 24388.4 20317.2
threshold=2.6428570747375493 0.78571429848670971 6.5000000000000009 142.42857360839847 1.7857142686843874 0.5000000149011613 12.500000000000002 4.2142856121063241 1.3571428656578066 0 1 0.21428572386503222 3.2142857313156132 1.3571428656578066 3.928571462631226 9.2142858505249041 2 98.714286804199233 22.500000000000004 2.5000000000000004 2.5000000000000004 2.5000000000000004 3 2.5000000000000004 0.5000000149011613 6.6428573131561288 4 0.92857143282890331 2.5000000000000004 131.00000000000003
decision_type=10 8 8 8 10 10 10 8 8 9 9 10 10 10 10 10 9 10 10 2 2 2 9 2 10 10 9 8 2 10
left_child=1 5 7 6 8 11 15 14 27 -7 -10 16 21 -11 20 28 -1 18 -8 -9 -2 -6 -12 -24 -20 -21 -18 -3 -4 -19
right_child=2 4 3 -5 12 9 17 19 10 13 22 -13 -14 -15 -16 -17 26 29 24 25 -22 -23 23 -25 -26 -27 -28 -29 -30 -31
leaf_value=0.060120901380128766 0.034714318675641315 -0.013457887361738799 0.075036699689862332 -0.0004389421702534982 0.019820467167181072 0.064809012513738079 0.088544531254796097 0.060999964240166307 0.12021990923658724 -0.019369306634460584 0.071625090482662496 -0.024749471658055106 0.027575697640640971 -0.0067346292817159828 0.038761201628364293 0.078475628163953565 0.018471819316727298 0.079636295554254333 0.13858660896126157 0.040828633055549506 0.020034346102454147 0.0069333065209545358 0.0080140082816047287 -0.0024033993078994933 0.09999184597893282 0.05573654528915787 -0.032538423009315892 -0.0059034519461531564 0.058816723896668373 0.031886722571808163
leaf_weight=32301.640912055969 1297750.9878320694 5837958.8169798851 704712.96288967133 319346.94070386887 1561938.8384160995 87832.580327033997 2534709.0231945515 1287804.0549557209 37274.189585447311 10499203.867082834 35619.891935586929 12172612.03400135 1634204.8521332741 2497557.4295678139 2361525.3789505959 2040780.8467400074 53935.649749755859 125432.21741390228 117030.80737328529 2038879.0351772308 3088150.2424273491 3829669.6797945499 2256706.2389731407 5511260.8273582458 2901329.1554596424 922924.66745138168 25518139.185831308 4222042.702609539 2005049.4229211807 83486.472702026367
leaf_count=8413 373368 2284056 128295 947 514104 19472 318690 281635 6591 4255409 9190 5073546 482793 931218 614923 284669 20787 2053 10605 508472 931431 1283096 798737 1967241 186889 194335 11065865 1574091 389467 579
internal_value=0 -0.234369 0.785461 1.07613 0.00586123 -0.352102 1.10899 0.499161 -0.0682406 -0.218567 0.0201913 -0.398354 0.194663 -0.225884 0.39216 0.928908 -0.430854 1.25747 1.2744 0.669054 0.32504 0.142223 0.0126292 0.00830676 1.35318 0.606321 -0.432411 -0.137165 0.840466 0.8074
internal_weight=0 7.57883e+07 2.18289e+07 1.08319e+07 2.49267e+07 5.08616e+07 1.05125e+07 1.0997e+07 1.79009e+07 1.30846e+07 7.84086e+06 3.7777e+07 7.02581e+06 1.29968e+07 6.74743e+06 4.75054e+06 2.56044e+07 5.76199e+06 5.55307e+06 4.24961e+06 4.3859e+06 5.39161e+06 7.80359e+06 7.76797e+06 3.01836e+06 2.9618e+06 2.55721e+07 1.006e+07 2.70976e+06 208919
internal_count=34520967 30294609 4226358 1322194 8919899 21374710 1321247 2904164 6639906 5206099 2781759 16168611 2279993 5186627 1919722 802431 11095065 518816 516184 984442 1304799 1797200 2775168 2765978 197494 702807 11086652 3858147 517762 2632
cat_boundaries=0 95 190 283 377 472
cat_threshold=0 0 0 0 0 0 0 0 0 0 0 0 0 0 0 0 0 0 128 0 2147483648 0 0 0 0 0 0 268435456 2 0 0 4194304 0 0 0 0 0 0 0 0 0 0 0 0 0 0 0 0 0 0 0 0 0 0 4194304 0 0 0 0 0 2048 0 0 0 0 0 0 0 0 16777216 0 4194304 1024 256 0 67108864 67108864 4096 66560 0 0 256 4096 1073741824 1024 12 134742016 1048576 0 0 0 4202560 537001988 0 16777216 0 0 0 0 0 0 0 0 0 0 0 1024 0 0 0 0 0 0 0 0 0 0 0 0 0 0 0 0 0 0 0 0 0 0 0 0 0 0 0 0 0 0 0 0 0 0 0 0 8 0 0 0 0 0 0 0 0 0 4194304 0 0 0 0 0 0 4194304 0 0 1024 16777216 32768 0 525312 256 0 67108864 100925440 0 8389120 16384 67108864 0 64 4608 134217728 4 134225920 201326592 0 2048 0 4194304 536870916 0 2097152 0 0 0 4 0 0 0 0 0 0 0 0 0 0 0 0 0 0 0 0 0 0 0 0 67108864 0 0 268435456 8194 0 8192 272630784 0 73728 0 0 0 0 0 0 0 0 0 0 0 0 0 0 65536 4096 0 0 0 0 0 0 0 0 0 0 0 0 0 0 0 0 0 0 0 16777216 0 0 536871936 16777216 0 67108864 67108864 0 65536 0 0 33555200 8192 1073872896 0 0 524288 1048576 32768 0 33554432 32768 131072 0 0 0 0 0 0 0 0 0 0 524288 0 0 0 0 0 0 0 0 0 2147483648 0 0 0 0 0 0 0 0 0 0 0 0 0 0 0 0 0 0 0 0 0 0 0 0 0 0 0 0 0 0 0 0 0 0 0 0 0 0 0 134219776 0 0 0 524288 0 0 0 0 0 0 536870912 1 0 64 0 2048 4096 66560 33587200 0 2097920 0 1145045000 0 1081376 524288 1048576 0 0 33554432 33554496 131072 1073742336 0 0 0 0 0 0 0 0 0 0 0 0 0 0 0 0 0 0 0 0 131072 0 0 0 0 0 0 0 4194304 0 16 0 0 0 8 0 0 0 0 0 0 0 0 0 0 0 0 0 0 0 0 0 0 0 4194304 0 0 0 0 0 134217728 0 0 0 1 0 0 0 0 0 0 4194304 2621440 524288 0 0 262144 0 8388608 49152 67108864 0 0 71303168 134217728 1073741856 8192 0 0 2048 0 37748736 536870916 1073741824 555745284
shrinkage=0.075


Tree=7
num_leaves=31
num_cat=4
split_feature=20 20 20 18 18 20 16 20 18 20 0 16 5 0 16 24 0 20 20 18 5 20 5 5 24 5 18 16 20 8
split_gain=1.589e+07 2.05366e+06 1.58196e+06 316029 260392 229207 198764 191294 164391 131314 82619.2 49303 48291 44320.5 42040.6 38693.9 38525.9 37233.5 49058 33362.8 31769 30084 29618.6 27956.7 22820.9 22442.1 22185.7 22179.9 21675 20795.7
threshold=2.3392857313156132 0.73214286565780651 6.3392858505249032 142.42857360839847 1.7857142686843874 0.30357143282890325 10.500000000000002 3.6250000000000004 4.5000000000000009 1.2678571343421938 0 5.5000000000000009 2.5000000000000004 1 9.5000000000000018 15.500000000000002 2 12.839285373687746 63.839284896850593 1.5000000000000002 2.5000000000000004 0.089285716414451613 2.5000000000000004 2.5000000000000004 12.500000000000002 2.5000000000000004 14.071428775787355 10.500000000000002 0.51785713434219371 3
decision_type=10 8 8 8 10 10 8 8 10 10 9 10 2 9 10 2 9 8 10 10 2 10 2 2 2 2 10 10 10 1
left_child=1 5 7 6 9 13 15 12 20 10 -3 -9 -2 -1 23 16 -4 25 24 28 -6 -15 -11 -12 -19 -8 -13 -10 -7 -26
right_child=2 4 3 -5 8 19 17 11 27 22 14 26 -14 21 -16 -17 -18 18 -20 -21 -22 -23 -24 -25 29 -27 -28 -29 -30 -31
leaf_value=0.044499562638372438 0.034282224330704165 0.10621962405145706 0.09609085437321839 -0.00070841045471012223 0.017538728424802846 -0.023438155398407875 0.08211376507414625 0.037698052455535709 0.04994383671185286 0.010789929145672141 -0.0049429236249256417 0.050661551934441225 0.020245618116528388 -0.033958440775620678 0.11182542865006656 0.054188350934491189 0.064648544056760154 0.09440130319101793 0.06576344731605209 0.0078960373383906227 0.005587309929366735 -0.029119870496661007 -0.000214893768045043 -0.012526758341413287 -0.037020590241159196 0.065725341259758693 0.12193706398939322 0.091693931796579295 -0.018025795956722282 0.083662699862602358
leaf_weight=42910.77879357338 1962130.6516432762 34369.030841112137 246558.035176754 332750.46217823029 1770388.8060142994 9802649.4967653751 804572.90706157684 4097274.2303562164 195447.15892910957 1937934.257494688 3840659.7440690994 2267483.9316973686 4636507.9769785404 15999779.51933217 15863.349412202835 2252071.5856683254 1982750.5703001022 1719007.9030537605 661928.21666526794 225536.96982431412 4265141.8055303097 13184272.136756897 4741711.3890998363 9490728.2060301304 8055.7445158958435 1130342.8523788452 24833.923384666443 112935.17097306252 7233141.4753046036 2628164.1047039032
leaf_count=12565 546433 6279 35107 966 571702 4168898 108347 977353 44548 677439 1480176 495294 1361954 7208303 3373 359286 316771 123263 11340 86459 1423008 5817259 1683567 3669622 726 163889 3648 14827 2955691 192874
internal_value=0 -0.241678 0.685625 0.951225 -0.0189646 -0.368179 0.979184 0.445015 0.157627 -0.0748077 -0.131969 0.568344 0.325593 -0.422141 -0.135956 0.814962 0.908357 1.08504 1.13049 -0.27681 0.12124 -0.423634 0.0397051 -0.137892 1.16904 0.967199 0.685783 0.86978 -0.281869 1.11059
internal_weight=0 7.28935e+07 2.47544e+07 1.17662e+07 2.64052e+07 4.64883e+07 1.14335e+07 1.29882e+07 6.34391e+06 2.00613e+07 1.33816e+07 6.38959e+06 6.59864e+06 2.9227e+07 1.33473e+07 4.48138e+06 2.22931e+06 6.95207e+06 5.01716e+06 1.72613e+07 6.03553e+06 2.91841e+07 6.67965e+06 1.33314e+07 4.35523e+06 1.93492e+06 2.29232e+06 308382 1.70358e+07 2.63622e+06
internal_count=34520967 29823716 4697251 1312569 9574541 20249175 1311603 3384682 2054085 7520456 5159450 1476295 1908387 13038127 5153171 711164 351878 600439 328203 7211048 1994710 13025562 2361006 5149798 316863 272236 498942 59375 7124589 193600
cat_boundaries=0 94 189 284 285
cat_threshold=0 0 0 0 0 0 0 0 0 0 0 1024 0 0 0 0 0 0 128 0 32 0 0 0 0 0 0 268435456 0 0 0 4195328 0 0 0 0 0 0 0 0 0 0 0 0 0 0 0 0 8 0 0 0 0 0 0 0 0 0 0 0 134217728 0 0 0 0 4194304 0 0 1024 16777216 32768 0 524288 0 64 67108864 67371008 0 0 16896 0 512 64 4096 0 36 524288 201326592 32768 0 4096 4194304 4 1073741824 0 0 0 4 0 0 0 0 0 0 0 0 0 0 0 0 0 0 0 0 0 0 0 0 67108864 0 1073741824 0 0 0 0 1024 0 0 0 0 0 0 0 0 0 0 0 0 0 0 0 0 65536 4096 0 0 0 0 0 0 0 0 0 0 134217728 0 0 0 0 0 0 0 0 16777216 0 4194304 2622464 16777216 0 67108864 67371008 0 65536 0 0 512 8192 1073872896 0 0 524288 1048576 0 2048 33554432 4227072 537001988 0 2097156 0 0 0 0 0 0 0 0 0 0 0 0 0 0 0 0 0 0 0 0 0 0 0 0 0 0 0 0 0 0 0 0 0 0 0 0 0 0 0 0 0 0 0 0 0 0 0 0 0 0 0 0 0 0 0 4195328 16818176 0 4194304 0 2050 0 0 0 4194304 268435456 0 128 17536 16842756 0 4194304 0 4194304 1024 0 67108864 0 0 0 0 256 4096 4194304 0 4 524288 1048576 0 0 0 4194304 536870912 0 553656320 4
shrinkage=0.075


Tree=8
num_leaves=31
num_cat=6
split_feature=20 20 20 20 16 20 16 19 20 0 19 20 5 0 5 5 16 21 20 0 20 20 20 0 5 16 0 0 16 19
split_gain=1.42619e+07 1.84186e+06 1.4123e+06 206769 204475 208303 181637 218346 117973 59039.1 52684 42995.9 41036.4 40102.8 39567.9 37524.2 37295.3 33385.1 31325.5 31273.7 27129.6 25618.9 23172.8 21798.7 21456 19732.8 18803 17837.5 19290.6 15608.1
threshold=2.1964285373687749 0.69642856717109691 5.2678570747375497 0.26785714924335485 7.5000000000000009 1.3392856717109682 9.5000000000000018 110.2857131958008 3.2321428060531621 0 1.0000000180025095e-35 12.125000000000002 2.5000000000000004 1 2.5000000000000004 2.5000000000000004 1.5000000000000002 7.9107141494750985 63.839284896850593 2 0.91071426868438732 0.48214285075664526 0.089285716414451613 3 2.5000000000000004 27.500000000000004 4 5 1.5000000000000002 160.64286041259768
decision_type=10 8 10 10 10 10 10 10 10 9 10 8 2 9 2 2 8 10 8 9 10 10 10 9 2 10 9 9 10 10
left_child=1 3 8 13 5 9 17 11 15 -3 -6 24 -10 -1 -7 -2 20 -4 25 -18 -11 -5 23 -15 -8 -13 -21 -19 -29 -9
right_child=2 4 6 21 10 14 7 29 12 16 -12 18 -14 22 -16 -17 19 27 -20 26 -22 -23 -24 -25 -26 -27 -28 28 -30 -31
leaf_value=0.04353358494341715 0.028834805435279481 0.077375230019780777 0.046406926337852476 -0.023854735855507757 0.077027502084457536 0.012929472799479104 0.071142550184878903 0.030222342470634177 0.043594610107330685 -0.014519919131599796 0.017061991728747433 0.072602298072569724 0.030455514586336146 0.014092196713669276 0.0023281009022103785 0.016122319603703889 0.082027135324796122 0.073643879206621937 0.058734307593176029 0.062106493576114023 -0.007345144879530115 -0.018094032469526712 -0.029326766228929987 -0.034008102196176039 0.057155294719799445 0.082027049619075199 -0.0037513499374099307 0.041295293618255353 0.058719942046985343 0.00057046762451209792
leaf_weight=39615.437517881393 1861943.2767846584 44908.459892034531 3301543.6271588802 10170423.815984964 217640.34853219986 2797460.0302238464 1054582.6526479721 187402.57127189636 1924286.4533345699 5937438.5411121845 132640.27831864357 2938961.5194602013 4381748.4789700508 53180.567731380463 6779913.4219369888 4375016.3545203209 24229.030710458755 344685.02541780472 618134.01714324951 24509.191121339798 5920551.3197674751 7577955.4806113243 10891643.168240547 15415537.975661755 1486347.3986229897 2173930.0052037239 4477798.709954977 443589.31169438362 1839153.6286625862 213746.14436340332
leaf_count=10913 521824 7999 608923 4459146 35129 929141 142636 1552 432171 2382312 42045 249340 1076654 22022 2330349 1300211 6163 43066 10121 6698 2261465 3165656 4961495 7186999 218284 106367 1676573 62663 262448 602
internal_value=0 -0.243849 0.609191 -0.368734 -0.0346665 -0.0448886 0.820594 0.912808 0.363083 -0.113219 0.724273 0.947749 0.459532 -0.424847 0.0723288 0.265566 -0.116358 0.6857 0.995755 -0.0391374 -0.145835 -0.285268 -0.426357 -0.451237 0.839474 1.02146 -0.045236 0.769817 0.737783 0.192304
internal_weight=0 7.05054e+07 2.71451e+07 4.41484e+07 2.63571e+07 2.60068e+07 1.46021e+07 8.6731e+06 1.2543e+07 1.64294e+07 350281 8.27196e+06 6.30603e+06 2.64e+07 9.57737e+06 6.23696e+06 1.63845e+07 5.92897e+06 5.73103e+06 4.52654e+06 1.1858e+07 1.77484e+07 2.63604e+07 1.54687e+07 2.54093e+06 5.11289e+06 4.50231e+06 2.62743e+06 2.28274e+06 401149
internal_count=34520967 29484105 5036862 19806231 9677874 9600700 1706002 728902 3330860 6341210 77174 726748 1508825 12181429 3259490 1822035 6333211 977100 365828 1689434 4643777 7624802 12170516 7209021 360920 355707 1683271 368177 325111 2154
cat_boundaries=0 94 189 284 379 474 569
cat_threshold=0 0 0 0 0 0 0 0 0 0 0 0 0 0 0 0 0 0 128 0 32 0 0 0 0 0 0 268435456 8192 0 8192 4195328 0 0 0 0 0 0 0 0 0 0 0 0 0 0 0 0 8 0 0 0 0 0 0 0 0 0 0 0 134217728 0 0 0 0 4194304 0 0 1024 16777216 0 0 525312 0 0 67108864 67108864 0 66560 16384 67108864 256 0 4096 0 8 524288 201326592 32768 0 0 4194368 537001984 512 0 0 0 4 0 0 0 0 0 0 0 0 0 0 0 0 0 0 0 0 0 0 0 0 67108864 0 1073741824 0 0 0 0 1024 0 0 0 0 0 0 0 0 0 0 0 0 0 0 0 0 65536 4096 0 0 0 0 4194304 0 0 0 0 0 134217728 0 0 0 0 0 0 0 0 16777216 0 4194304 538969088 16777216 0 67108864 67108864 0 65536 0 67108864 0 8192 1073872896 0 1073741824 0 1048576 32768 0 33554432 37781504 131072 0 2097156 0 0 0 0 0 0 0 0 16 0 4096 1024 0 0 0 0 0 0 0 0 0 0 0 0 0 0 0 0 0 0 0 0 0 0 0 0 0 0 0 0 0 0 0 0 0 0 0 0 0 0 0 0 0 0 0 4096 0 0 4194304 0 2048 0 0 0 0 0 0 0 0 0 32768 536870912 0 256 64 0 34605056 0 0 0 0 2097664 12288 1077953032 134217728 32772 8192 1048576 0 2048 0 0 4 0 538976256 0 0 0 0 0 0 0 0 0 0 0 0 0 0 0 0 0 0 0 0 0 0 0 0 0 0 0 0 8192 0 0 0 0 0 0 0 0 0 0 0 0 0 0 0 0 0 0 0 0 0 0 0 0 0 0 0 0 0 0 0 8192 0 0 0 1 4194304 0 2147483648 0 0 32768 0 524288 524296 33554432 0 537133056 0 8388608 49664 0 512 80 8388608 134217728 32 532480 0 0 268437504 67108864 0 536870916 1073741824 537919488 128 0 0 0 0 8192 0 0 1073741824 0 524288 512 0 0 0 0 0 0 0 0 0 64 0 4194304 0 0 1073741824 2097152 0 0 0 0 0 0 0 0 0 0 0 0 0 0 0 0 0 0 0 0 0 0 0 0 0 0 0 16 0 0 0 0 0 0 0 0 0 0 0 536871168 0 0 0 33554432 0 0 0 0 262144 0 8389120 33280 0 0 64 67108864 528 1048608 0 0 0 0 33558784 33554432 2097152 5 131072 0 0 0 0 2 0 0 4 0 0 34078720 0 0 0 0 0 0 16777216 0 0 0 0 536870912 0 0 0 0 268435456 0 0 0 272629760 0 0 0 0 0 0 0 0 0 0 0 0 0 0 0 0 0 0 1073741824 0 0 0 524288 1168 0 0 0 0 134217728 0 0 0 4194304 268435456 0 536870912 17408 16777216 0 4194304 131072 0 0 0 67108864 0 0 0 0 0 4096 4194304 0 4 0 67108864 0 0 0 4194304 536870912 0 16908288
shrinkage=0.075


Tree=9
num_leaves=31
num_cat=7
split_feature=20 20 20 18 18 20 20 20 20 0 5 0 0 5 5 5 5 8 18 24 0 16 16 20 0 24 18 20 21 8
split_gain=1.28652e+07 1.61076e+06 1.33294e+06 218950 189442 198235 185401 163430 126176 69579.4 43634.7 38312.9 36241.4 35974.9 35620.7 35349.4 31767.8 30482.7 30330 27271.9 28292.4 25143.9 24194.7 23404.9 20610.7 20564.5 18654.5 17672.2 16463.5 14553.7
threshold=2.0178571939468388 0.66071426868438732 5.1250000000000009 3.3571429252624516 142.42857360839847 10.017857074737551 0.26785714924335485 1.2321428656578066 3.0892857313156132 0 2.5000000000000004 1 2 2.5000000000000004 2.5000000000000004 2.5000000000000004 2.5000000000000004 3 1.3571428656578066 12.500000000000002 4 13.500000000000002 12.500000000000002 0.089285716414451613 5 15.500000000000002 1.928571403026581 0.44642856717109686 4.5892858505249032 6
decision_type=10 8 8 10 10 10 10 10 10 9 2 9 9 2 2 2 2 1 10 2 9 10 8 10 9 2 10 10 10 1
left_child=1 6 8 7 5 10 12 9 13 -3 -4 -11 28 -2 -9 -10 -13 -7 27 20 -19 -5 -21 24 -14 -12 -18 -8 -1 -27
right_child=2 3 4 21 -6 17 18 14 15 11 25 16 23 -15 -16 -17 26 19 -20 22 -22 -23 -24 -25 -26 29 -28 -29 -30 -31
leaf_value=0.011720090973356549 0.024790301095248653 0.084111715473734874 0.055894295196709722 0.035819365487112065 -0.00090364632570034433 -0.037069255460149733 -0.024213536573900549 0.0096587878302434767 0.038974159844554497 0.063555164502992256 0.047951480046162342 -0.0048245010267765256 0.015080623392327854 0.013246548006902637 -0.00024778906123438437 0.027326608040899428 -0.012907990793021776 0.0898059666243302 0.0049634776467344342 0.05240571179007935 0.067114811068823513 0.077275617020906545 0.063897710265453447 -0.029103606505461031 -0.033872111332758761 -0.03715528575077777 0.0043092066655886462 -0.019227786568026779 0.12275406265818835 0.038481751918125237
leaf_weight=29295.996208906174 2171087.8839831352 44338.908784389496 2111317.4750037193 429102.73826575279 329941.98951530457 16745.080992221832 8436259.0383405685 2894256.9634604454 2115539.9535872936 39758.138693809509 2313003.9478373528 4465514.1872746944 48536.472900390625 5052418.2272086143 6930388.3366484642 4771199.6105809212 10571086.499397993 343001.4913225174 240855.40323233604 1414521.1602139473 3144336.9824695587 101823.40742444992 3795954.7646136284 10578307.366445065 14906473.636233091 14391.597775697708 366245.18683862686 7603061.5316400528 10101.614544391632 2369654.6289258003
leaf_count=8209 610442 7512 323723 103861 941 1531 3806240 979562 464729 8279 395966 1754553 19664 1518488 2439111 1159318 4217659 26978 95703 156075 225312 10521 230576 4962149 7189749 2479 129348 3263192 1715 407382
internal_value=0 -0.248252 0.538777 -0.051947 0.737764 0.753701 -0.369463 -0.065278 0.315214 -0.129278 0.62585 -0.13287 -0.422568 0.222882 0.0356081 0.412062 -0.135401 0.853587 -0.286046 0.856181 0.924628 0.583601 0.810372 -0.424046 -0.44951 0.572177 -0.164419 -0.291335 0.535726 0.507002
internal_weight=0 6.76954e+07 2.99631e+07 2.58425e+07 1.58529e+07 1.55229e+07 4.18529e+07 2.53116e+07 1.41102e+07 1.54869e+07 6.80837e+06 1.54426e+07 2.55727e+07 7.22351e+06 9.82465e+06 6.88674e+06 1.54028e+07 8.71456e+06 1.62802e+07 8.69781e+06 3.48734e+06 530926 5.21048e+06 2.55333e+07 1.4955e+07 4.69705e+06 1.09373e+07 1.60393e+07 39397.6 2.38405e+06
internal_count=34520967 28997027 5523940 9650406 1770963 1770022 19346621 9536024 3752977 6117351 1129550 6109839 12181486 2128930 3418673 1624047 6101560 640472 7165135 638941 252290 114382 386651 12171562 7209413 805827 4347007 7069432 9924 409861
cat_boundaries=0 94 186 281 282 377 472 473
cat_threshold=0 0 0 0 0 0 0 0 0 0 0 0 0 0 0 0 0 0 128 0 0 0 0 0 0 0 0 268435456 8192 0 16 1024 0 0 0 0 0 0 0 0 0 0 0 0 0 0 0 0 8 0 0 0 0 0 0 0 0 0 0 0 0 0 0 0 0 4194304 0 0 1024 16777216 32768 0 524288 0 0 67108864 67371008 0 512 16896 0 0 0 4096 134217728 4 134742016 201326592 32768 2048 0 4194304 537001988 1073742336 0 0 0 0 0 0 0 0 0 0 0 1024 0 0 0 0 0 0 0 0 2147483680 0 0 0 0 0 0 0 0 0 8192 272629760 0 0 0 0 0 0 0 0 0 0 0 0 0 0 0 0 0 0 0 2048 0 0 0 0 0 0 0 0 134217728 0 0 0 0 0 0 0 0 0 0 0 1024 256 64 0 34603008 4096 8455168 33554432 67108864 2097920 8192 1077936648 512 32 0 1048576 0 0 4096 33554432 0 0 0 4 0 0 0 0 0 0 0 0 0 0 0 0 0 0 0 0 0 0 0 0 67108864 0 1073741824 0 0 0 0 1024 0 8192 0 0 0 0 0 0 0 0 0 0 0 0 0 0 65536 4096 0 0 0 0 4194304 0 0 0 0 0 0 0 0 0 1 0 0 0 0 16777216 0 4194304 538969088 16777216 0 67108864 67371008 0 65536 0 0 512 8192 1073741824 0 0 524288 1048576 0 0 33554432 37781504 131076 1073741824 4 4 0 0 0 0 0 0 0 0 0 0 0 0 0 0 0 0 0 0 0 0 0 0 0 0 0 0 0 0 0 0 0 0 0 0 0 0 0 0 0 0 0 0 0 0 0 0 0 0 33554432 0 0 0 0 0 0 1053840 0 128 4194304 0 134219808 0 0 0 4196352 2147483648 0 256 2114560 16842752 0 4194304 0 4194304 1024 0 67108864 0 0 0 0 0 4096 0 0 4 524288 1048576 0 0 16 4194304 0 0 536870912 0 0 0 0 0 0 0 0 0 0 0 0 0 0 0 0 0 0 0 67108864 1073741824 0 0 0 0 0 536870912 0 8192 0 0 0 0 0 0 0 0 0 0 0 0 0 0 0 0 0 0 0 0 0 0 0 0 0 0 0 0 0 0 0 134225920 0 0 0 0 0 0 2147483648 0 0 0 0 524288 524288 33554432 0 536870912 0 8388608 49664 201326592 0 80 131072 134217728 1073741856 8192 0 32768 268437504 67108864 0 536870912 0 540016640 4
shrinkage=0.075


end of trees

feature importances:
rmean_7_28=75
rmean_7_7=62
item_id=43
wday=36
lag_7=24
rmean_28_7=19
rmean_28_28=15
lag_28=11
mday=7
event_name_1=4
store_id=1
state_id=1
snap_WI=1
sell_price=1

parameters:
[boosting: gbdt]
[objective: poisson]
[metric: rmse]
[tree_learner: serial]
[device_type: cpu]
[data: ]
[valid: ]
[num_iterations: 100]
[learning_rate: 0.075]
[num_leaves: 31]
[num_threads: 16]
[max_depth: -1]
[min_data_in_leaf: 20]
[min_sum_hessian_in_leaf: 0.001]
[bagging_fraction: 0.75]
[pos_bagging_fraction: 1]
[neg_bagging_fraction: 1]
[bagging_freq: 1]
[bagging_seed: 3]
[feature_fraction: 0.8]
[feature_fraction_bynode: 1]
[feature_fraction_seed: 2]
[early_stopping_round: 0]
[first_metric_only: 0]
[max_delta_step: 0]
[lambda_l1: 0]
[lambda_l2: 0.1]
[min_gain_to_split: 0]
[drop_rate: 0.1]
[max_drop: 50]
[skip_drop: 0.5]
[xgboost_dart_mode: 0]
[uniform_drop: 0]
[drop_seed: 4]
[top_rate: 0.2]
[other_rate: 0.1]
[min_data_per_group: 100]
[max_cat_threshold: 32]
[cat_l2: 10]
[cat_smooth: 10]
[max_cat_to_onehot: 4]
[top_k: 20]
[monotone_constraints: ]
[feature_contri: ]
[forcedsplits_filename: ]
[forcedbins_filename: ]
[refit_decay_rate: 0.9]
[cegb_tradeoff: 1]
[cegb_penalty_split: 0]
[cegb_penalty_feature_lazy: ]
[cegb_penalty_feature_coupled: ]
[verbosity: 1]
[max_bin: 255]
[max_bin_by_feature: ]
[min_data_in_bin: 3]
[bin_construct_sample_cnt: 200000]
[histogram_pool_size: -1]
[data_random_seed: 1]
[output_model: LightGBM_model.txt]
[snapshot_freq: -1]
[input_model: ]
[output_result: LightGBM_predict_result.txt]
[initscore_filename: ]
[valid_data_initscores: ]
[pre_partition: 0]
[enable_bundle: 1]
[max_conflict_rate: 0]
[is_enable_sparse: 1]
[sparse_threshold: 0.8]
[use_missing: 1]
[zero_as_missing: 0]
[two_round: 0]
[save_binary: 0]
[header: 0]
[label_column: ]
[weight_column: ]
[group_column: ]
[ignore_column: ]
[categorical_feature: ]
[predict_raw_score: 0]
[predict_leaf_index: 0]
[predict_contrib: 0]
[num_iteration_predict: -1]
[pred_early_stop: 0]
[pred_early_stop_freq: 10]
[pred_early_stop_margin: 10]
[convert_model_language: ]
[convert_model: gbdt_prediction.cpp]
[num_class: 1]
[is_unbalance: 0]
[scale_pos_weight: 1]
[sigmoid: 1]
[boost_from_average: 1]
[reg_sqrt: 0]
[alpha: 0.9]
[fair_c: 1]
[poisson_max_delta_step: 0.7]
[tweedie_variance_power: 1.5]
[max_position: 20]
[lambdamart_norm: 1]
[label_gain: ]
[metric_freq: 1]
[is_provide_training_metric: 0]
[eval_at: ]
[multi_error_top_k: 1]
[num_machines: 1]
[local_listen_port: 12400]
[time_out: 120]
[machine_list_filename: ]
[machines: ]
[gpu_platform_id: -1]
[gpu_device_id: -1]
[gpu_use_dp: 0]

end of parameters

pandas_categorical:[]
